=== Run information ===

Scheme:weka.classifiers.meta.CostSensitiveClassifier -cost-matrix "[0.0 2.0; 1.0 0.0]" -M -S 1 -W weka.classifiers.meta.Bagging -- -P 100 -S 1 -I 100 -W weka.classifiers.trees.REPTree -- -M 2 -V 0.001 -N 3 -S 1 -L -1
Relation:     contest_train2-weka.filters.supervised.instance.SMOTE-C0-K10-P100.0-S1
Instances:    4200
Attributes:   1898
[list of attributes omitted]
Test mode:5-fold cross-validation

=== Classifier model (full training set) ===

CostSensitiveClassifier using minimized expected misclasification cost

weka.classifiers.meta.Bagging -P 100 -S 1 -I 100 -W weka.classifiers.trees.REPTree -- -M 2 -V 0.001 -N 3 -S 1 -L -1

Classifier Model
All the base classifiers: 


REPTree
============

Att341 < 21.01
|   Att913 < 19.01
|   |   Att1859 < 141.94
|   |   |   Att891 < 3.16
|   |   |   |   Att1705 < 3.01
|   |   |   |   |   Att1316 < 11 : 1 (7/3) [2/0]
|   |   |   |   |   Att1316 >= 11
|   |   |   |   |   |   Att725 < 14.53
|   |   |   |   |   |   |   Att176 < 254.99 : 2 (19/0) [7/0]
|   |   |   |   |   |   |   Att176 >= 254.99 : 1 (4/1) [5/2]
|   |   |   |   |   |   Att725 >= 14.53 : 2 (294/2) [121/7]
|   |   |   |   Att1705 >= 3.01
|   |   |   |   |   Att951 < 1604.52 : 2 (32/0) [18/0]
|   |   |   |   |   Att951 >= 1604.52
|   |   |   |   |   |   Att281 < 1025.76 : 2 (11/0) [7/0]
|   |   |   |   |   |   Att281 >= 1025.76 : 1 (13/1) [10/1]
|   |   |   Att891 >= 3.16
|   |   |   |   Att1140 < 153.53
|   |   |   |   |   Att93 < 71.75 : 1 (5/0) [2/0]
|   |   |   |   |   Att93 >= 71.75 : 2 (85.55/3) [48.46/3.91]
|   |   |   |   Att1140 >= 153.53 : 1 (45/15) [15/2]
|   |   Att1859 >= 141.94 : 2 (419.19/1) [217.19/8]
|   Att913 >= 19.01
|   |   Att1670 < -1.13
|   |   |   Att478 < 79.5
|   |   |   |   Att1583 < 1340.12
|   |   |   |   |   Att1497 < 277.5 : 2 (15/3) [10/3]
|   |   |   |   |   Att1497 >= 277.5
|   |   |   |   |   |   Att1364 < 5.95 : 1 (85.32/2.87) [29/8]
|   |   |   |   |   |   Att1364 >= 5.95 : 2 (12.58/5) [7/1]
|   |   |   |   Att1583 >= 1340.12
|   |   |   |   |   Att1033 < 1644.51 : 2 (30.45/0.45) [14/2]
|   |   |   |   |   Att1033 >= 1644.51 : 1 (13/3) [2/0]
|   |   |   Att478 >= 79.5 : 2 (30/0) [12.56/0.56]
|   |   Att1670 >= -1.13 : 2 (146.26/7) [69.7/7.44]
Att341 >= 21.01
|   Att1832 < 2
|   |   Att729 < 0.01
|   |   |   Att1306 < 8.5
|   |   |   |   Att980 < 52
|   |   |   |   |   Att243 < 632 : 2 (51.41/1) [33/9]
|   |   |   |   |   Att243 >= 632
|   |   |   |   |   |   Att861 < 2.5 : 1 (10/0) [5/0]
|   |   |   |   |   |   Att861 >= 2.5 : 2 (12/1) [6/4]
|   |   |   |   Att980 >= 52
|   |   |   |   |   Att137 < 24.65 : 1 (32.44/3) [18/6]
|   |   |   |   |   Att137 >= 24.65
|   |   |   |   |   |   Att1283 < 973.5 : 2 (22/1) [13/3]
|   |   |   |   |   |   Att1283 >= 973.5
|   |   |   |   |   |   |   Att1573 < 22.5 : 2 (11/0) [5/0]
|   |   |   |   |   |   |   Att1573 >= 22.5
|   |   |   |   |   |   |   |   Att1895 < 11.48
|   |   |   |   |   |   |   |   |   Att200 < 120.5 : 1 (6.59/0.59) [9/2]
|   |   |   |   |   |   |   |   |   Att200 >= 120.5 : 2 (10/0) [9/2]
|   |   |   |   |   |   |   |   Att1895 >= 11.48 : 1 (25/0) [18/3]
|   |   |   Att1306 >= 8.5 : 2 (42/0) [24/4]
|   |   Att729 >= 0.01
|   |   |   Att858 < 185.5
|   |   |   |   Att180 < 2.02
|   |   |   |   |   Att449 < 15
|   |   |   |   |   |   Att1688 < 330
|   |   |   |   |   |   |   Att542 < 142.73 : 1 (19/3) [12/4]
|   |   |   |   |   |   |   Att542 >= 142.73
|   |   |   |   |   |   |   |   Att143 < 1115.5 : 2 (22/1) [8/3]
|   |   |   |   |   |   |   |   Att143 >= 1115.5 : 1 (4/0) [2/0]
|   |   |   |   |   |   Att1688 >= 330
|   |   |   |   |   |   |   Att293 < 0.1 : 2 (7.62/1.62) [10.62/5.62]
|   |   |   |   |   |   |   Att293 >= 0.1
|   |   |   |   |   |   |   |   Att1645 < 1501 : 1 (90.25/0) [34.62/3]
|   |   |   |   |   |   |   |   Att1645 >= 1501
|   |   |   |   |   |   |   |   |   Att40 < 312 : 1 (7/0) [2/1]
|   |   |   |   |   |   |   |   |   Att40 >= 312 : 2 (3/0) [4/0]
|   |   |   |   |   Att449 >= 15
|   |   |   |   |   |   Att1797 < 67
|   |   |   |   |   |   |   Att1403 < 225.5
|   |   |   |   |   |   |   |   Att600 < 25.5 : 1 (24.13/0) [16.75/3]
|   |   |   |   |   |   |   |   Att600 >= 25.5 : 2 (3/0) [3/0]
|   |   |   |   |   |   |   Att1403 >= 225.5
|   |   |   |   |   |   |   |   Att673 < 144
|   |   |   |   |   |   |   |   |   Att331 < 639 : 1 (10/0) [4/1]
|   |   |   |   |   |   |   |   |   Att331 >= 639 : 2 (6/1) [4/1]
|   |   |   |   |   |   |   |   Att673 >= 144 : 2 (21/0) [7/1]
|   |   |   |   |   |   Att1797 >= 67 : 2 (28/0) [12/1]
|   |   |   |   Att180 >= 2.02
|   |   |   |   |   Att1663 < 4.93
|   |   |   |   |   |   Att356 < 311
|   |   |   |   |   |   |   Att719 < 23.8 : 1 (7/0) [1/0]
|   |   |   |   |   |   |   Att719 >= 23.8
|   |   |   |   |   |   |   |   Att21 < 134.32 : 1 (2/0) [1/0]
|   |   |   |   |   |   |   |   Att21 >= 134.32 : 2 (13/0) [9/3]
|   |   |   |   |   |   Att356 >= 311
|   |   |   |   |   |   |   Att1101 < 4.09
|   |   |   |   |   |   |   |   Att422 < 334.5
|   |   |   |   |   |   |   |   |   Att439 < 358.5
|   |   |   |   |   |   |   |   |   |   Att1264 < 2760.5 : 2 (14/0) [5/1]
|   |   |   |   |   |   |   |   |   |   Att1264 >= 2760.5 : 1 (3/0) [1/0]
|   |   |   |   |   |   |   |   |   Att439 >= 358.5 : 1 (6/0) [4/0]
|   |   |   |   |   |   |   |   Att422 >= 334.5
|   |   |   |   |   |   |   |   |   Att462 < 56.92
|   |   |   |   |   |   |   |   |   |   Att150 < 15 : 2 (5/2) [2/0]
|   |   |   |   |   |   |   |   |   |   Att150 >= 15 : 1 (90/0) [37/1]
|   |   |   |   |   |   |   |   |   Att462 >= 56.92 : 2 (3/0) [0/0]
|   |   |   |   |   |   |   Att1101 >= 4.09
|   |   |   |   |   |   |   |   Att645 < 171.46 : 1 (315.96/3) [146/10]
|   |   |   |   |   |   |   |   Att645 >= 171.46
|   |   |   |   |   |   |   |   |   Att104 < 244.92 : 2 (4/0) [8/3]
|   |   |   |   |   |   |   |   |   Att104 >= 244.92 : 1 (6/0) [6/0]
|   |   |   |   |   Att1663 >= 4.93
|   |   |   |   |   |   Att1035 < 473.29 : 1 (7/0) [9/4]
|   |   |   |   |   |   Att1035 >= 473.29 : 2 (17/0) [7/2]
|   |   |   Att858 >= 185.5 : 2 (61.15/11.15) [29/5]
|   Att1832 >= 2
|   |   Att207 < 586.5 : 2 (106/0) [60.41/5]
|   |   Att207 >= 586.5
|   |   |   Att1757 < 59
|   |   |   |   Att975 < 13.12 : 2 (69.22/6) [24.22/2]
|   |   |   |   Att975 >= 13.12
|   |   |   |   |   Att199 < 405.5 : 2 (32/1) [30/4]
|   |   |   |   |   Att199 >= 405.5
|   |   |   |   |   |   Att1158 < 730.28
|   |   |   |   |   |   |   Att728 < 1.02 : 2 (31/0) [10.59/2]
|   |   |   |   |   |   |   Att728 >= 1.02
|   |   |   |   |   |   |   |   Att480 < 489
|   |   |   |   |   |   |   |   |   Att1869 < 157
|   |   |   |   |   |   |   |   |   |   Att102 < 1157.65
|   |   |   |   |   |   |   |   |   |   |   Att1683 < 3.45
|   |   |   |   |   |   |   |   |   |   |   |   Att610 < 4.5 : 2 (5.33/0) [1/0]
|   |   |   |   |   |   |   |   |   |   |   |   Att610 >= 4.5 : 1 (3/0) [1/0]
|   |   |   |   |   |   |   |   |   |   |   Att1683 >= 3.45 : 1 (23.55/0) [11/1]
|   |   |   |   |   |   |   |   |   |   Att102 >= 1157.65 : 2 (11/0) [8/0]
|   |   |   |   |   |   |   |   |   Att1869 >= 157
|   |   |   |   |   |   |   |   |   |   Att1287 < 15.87
|   |   |   |   |   |   |   |   |   |   |   Att642 < 242 : 1 (5/0) [3/1]
|   |   |   |   |   |   |   |   |   |   |   Att642 >= 242 : 2 (6/0) [10/1]
|   |   |   |   |   |   |   |   |   |   Att1287 >= 15.87 : 2 (38/0) [22/0]
|   |   |   |   |   |   |   |   Att480 >= 489
|   |   |   |   |   |   |   |   |   Att984 < 0.5 : 2 (2/0) [1.78/0]
|   |   |   |   |   |   |   |   |   Att984 >= 0.5 : 1 (27.57/0) [15/6]
|   |   |   |   |   |   Att1158 >= 730.28 : 1 (64/10) [24/3]
|   |   |   Att1757 >= 59 : 2 (87.43/3.43) [56.09/6.09]

Size of the tree : 141


REPTree
============

Att341 < 22.06
|   Att913 < 19.09
|   |   Att1235 < 175.06 : 2 (762.75/23) [348/17]
|   |   Att1235 >= 175.06
|   |   |   Att313 < 3.36
|   |   |   |   Att729 < 4.91
|   |   |   |   |   Att1340 < 1221 : 2 (43.46/0) [33/5]
|   |   |   |   |   Att1340 >= 1221
|   |   |   |   |   |   Att410 < 165
|   |   |   |   |   |   |   Att1161 < 76.5 : 2 (10/0) [6/0]
|   |   |   |   |   |   |   Att1161 >= 76.5 : 1 (19.5/2) [6.5/2]
|   |   |   |   |   |   Att410 >= 165 : 2 (22/0) [11/1]
|   |   |   |   Att729 >= 4.91 : 2 (109.54/0) [39/0]
|   |   |   Att313 >= 3.36
|   |   |   |   Att96 < 353.5
|   |   |   |   |   Att1091 < 15.09 : 2 (19/2) [6/0]
|   |   |   |   |   Att1091 >= 15.09
|   |   |   |   |   |   Att753 < -3.5 : 1 (39/0) [14/3]
|   |   |   |   |   |   Att753 >= -3.5 : 2 (7/1) [4/0]
|   |   |   |   Att96 >= 353.5 : 2 (21/0) [12/3]
|   Att913 >= 19.09
|   |   Att1670 < 0.5
|   |   |   Att402 < 170.67
|   |   |   |   Att834 < 733
|   |   |   |   |   Att1042 < 19.27
|   |   |   |   |   |   Att963 < 72.5 : 2 (30.25/0) [15/3]
|   |   |   |   |   |   Att963 >= 72.5
|   |   |   |   |   |   |   Att1808 < 18.5 : 2 (18.48/0) [8/0]
|   |   |   |   |   |   |   Att1808 >= 18.5
|   |   |   |   |   |   |   |   Att1045 < 301.99 : 1 (17/1) [14/4]
|   |   |   |   |   |   |   |   Att1045 >= 301.99
|   |   |   |   |   |   |   |   |   Att1715 < 1096
|   |   |   |   |   |   |   |   |   |   Att458 < 3.2 : 2 (15.52/3) [8/0]
|   |   |   |   |   |   |   |   |   |   Att458 >= 3.2 : 1 (9.5/0) [3.5/0]
|   |   |   |   |   |   |   |   |   Att1715 >= 1096 : 2 (17/0) [9/1]
|   |   |   |   |   Att1042 >= 19.27
|   |   |   |   |   |   Att933 < 1094 : 1 (24.72/0) [12/4]
|   |   |   |   |   |   Att933 >= 1094 : 2 (5/1) [3/1]
|   |   |   |   Att834 >= 733
|   |   |   |   |   Att1051 < 1.03
|   |   |   |   |   |   Att1 < 512.95 : 1 (2.28/0) [1/0]
|   |   |   |   |   |   Att1 >= 512.95 : 2 (5.5/0) [3/1]
|   |   |   |   |   Att1051 >= 1.03 : 1 (46/0) [31/6]
|   |   |   Att402 >= 170.67 : 2 (61.45/2.45) [50/5]
|   |   Att1670 >= 0.5 : 2 (96.55/1.55) [54/4]
Att341 >= 22.06
|   Att1832 < 2
|   |   Att1042 < 13.03
|   |   |   Att351 < 17.17
|   |   |   |   Att1127 < 2.31 : 2 (112/12) [55/12]
|   |   |   |   Att1127 >= 2.31
|   |   |   |   |   Att863 < 108.37
|   |   |   |   |   |   Att355 < 69.24
|   |   |   |   |   |   |   Att83 < 106.95 : 2 (2/0) [2/0]
|   |   |   |   |   |   |   Att83 >= 106.95 : 1 (26/0) [13/1]
|   |   |   |   |   |   Att355 >= 69.24 : 2 (6/0) [5/3]
|   |   |   |   |   Att863 >= 108.37 : 2 (26/3) [14/0]
|   |   |   Att351 >= 17.17 : 1 (36/7) [15/1]
|   |   Att1042 >= 13.03
|   |   |   Att1573 < 1.14
|   |   |   |   Att700 < 1996.5
|   |   |   |   |   Att886 < 102.5
|   |   |   |   |   |   Att11 < 138.2 : 2 (4/0) [3/0]
|   |   |   |   |   |   Att11 >= 138.2 : 1 (7/0) [2/0]
|   |   |   |   |   Att886 >= 102.5 : 2 (51.09/3.09) [19/1]
|   |   |   |   Att700 >= 1996.5 : 1 (7/0) [5/2]
|   |   |   Att1573 >= 1.14
|   |   |   |   Att454 < 72.5
|   |   |   |   |   Att1705 < 1.01
|   |   |   |   |   |   Att585 < 1.88
|   |   |   |   |   |   |   Att700 < 1792
|   |   |   |   |   |   |   |   Att183 < 0.04
|   |   |   |   |   |   |   |   |   Att1033 < 2706
|   |   |   |   |   |   |   |   |   |   Att154 < 599.32
|   |   |   |   |   |   |   |   |   |   |   Att16 < 30 : 1 (2/0) [1/0]
|   |   |   |   |   |   |   |   |   |   |   Att16 >= 30 : 2 (7.79/0) [4/1]
|   |   |   |   |   |   |   |   |   |   Att154 >= 599.32
|   |   |   |   |   |   |   |   |   |   |   Att861 < 5.5 : 1 (35/0) [16/3]
|   |   |   |   |   |   |   |   |   |   |   Att861 >= 5.5 : 2 (3/1) [1/0]
|   |   |   |   |   |   |   |   |   Att1033 >= 2706 : 2 (7/0) [3/0]
|   |   |   |   |   |   |   |   Att183 >= 0.04 : 1 (43.91/0) [33/6]
|   |   |   |   |   |   |   Att700 >= 1792 : 2 (9/0) [5/0]
|   |   |   |   |   |   Att585 >= 1.88
|   |   |   |   |   |   |   Att1593 < 322 : 1 (9.21/3.21) [6/2]
|   |   |   |   |   |   |   Att1593 >= 322 : 2 (19/0) [8/0]
|   |   |   |   |   Att1705 >= 1.01
|   |   |   |   |   |   Att350 < 304.5
|   |   |   |   |   |   |   Att79 < 230.5 : 1 (7/0) [3/0]
|   |   |   |   |   |   |   Att79 >= 230.5 : 2 (13/1) [6/2]
|   |   |   |   |   |   Att350 >= 304.5
|   |   |   |   |   |   |   Att975 < 12.09
|   |   |   |   |   |   |   |   Att683 < 3.34 : 2 (11/1) [6/0]
|   |   |   |   |   |   |   |   Att683 >= 3.34 : 1 (10/0) [5/1]
|   |   |   |   |   |   |   Att975 >= 12.09
|   |   |   |   |   |   |   |   Att743 < 5157.5
|   |   |   |   |   |   |   |   |   Att969 < 0.5 : 2 (3.78/0.02) [3.01/1.01]
|   |   |   |   |   |   |   |   |   Att969 >= 0.5
|   |   |   |   |   |   |   |   |   |   Att128 < 1.99 : 1 (215.97/0) [95/6]
|   |   |   |   |   |   |   |   |   |   Att128 >= 1.99
|   |   |   |   |   |   |   |   |   |   |   Att1199 < 289.19
|   |   |   |   |   |   |   |   |   |   |   |   Att274 < 108.56 : 1 (33/0) [12.99/2]
|   |   |   |   |   |   |   |   |   |   |   |   Att274 >= 108.56
|   |   |   |   |   |   |   |   |   |   |   |   |   Att1383 < 3.14
|   |   |   |   |   |   |   |   |   |   |   |   |   |   Att1575 < 661.53 : 1 (5/0) [3/0]
|   |   |   |   |   |   |   |   |   |   |   |   |   |   Att1575 >= 661.53 : 2 (14/1) [9/1]
|   |   |   |   |   |   |   |   |   |   |   |   |   Att1383 >= 3.14 : 1 (13/0) [6/0]
|   |   |   |   |   |   |   |   |   |   |   Att1199 >= 289.19 : 1 (131/1) [69/8]
|   |   |   |   |   |   |   |   Att743 >= 5157.5 : 2 (4.01/0.01) [4/0]
|   |   |   |   Att454 >= 72.5
|   |   |   |   |   Att1381 < 89.69 : 1 (12/0) [3/0]
|   |   |   |   |   Att1381 >= 89.69
|   |   |   |   |   |   Att293 < 7.09 : 2 (22/0) [9/0]
|   |   |   |   |   |   Att293 >= 7.09
|   |   |   |   |   |   |   Att1200 < 256.5
|   |   |   |   |   |   |   |   Att263 < 841.28 : 1 (23/2) [5/0]
|   |   |   |   |   |   |   |   Att263 >= 841.28 : 2 (9/1) [10/2]
|   |   |   |   |   |   |   Att1200 >= 256.5 : 2 (14.24/0) [10/1]
|   Att1832 >= 2
|   |   Att1716 < 195.46
|   |   |   Att934 < 2318.61
|   |   |   |   Att753 < -1.07
|   |   |   |   |   Att425 < 372.14
|   |   |   |   |   |   Att1127 < 32.6
|   |   |   |   |   |   |   Att1095 < 1794.5 : 2 (121.45/13.5) [74.5/13.5]
|   |   |   |   |   |   |   Att1095 >= 1794.5 : 1 (6.05/0.05) [3/0]
|   |   |   |   |   |   Att1127 >= 32.6
|   |   |   |   |   |   |   Att248 < 1621 : 1 (10/0) [0/0]
|   |   |   |   |   |   |   Att248 >= 1621 : 2 (3/0) [2/0]
|   |   |   |   |   Att425 >= 372.14 : 2 (73/0) [39/3]
|   |   |   |   Att753 >= -1.07 : 2 (89.7/0) [35/5]
|   |   |   Att934 >= 2318.61 : 1 (9/1) [4/3]
|   |   Att1716 >= 195.46
|   |   |   Att821 < 468.5
|   |   |   |   Att241 < 882.36
|   |   |   |   |   Att390 < 391.63 : 2 (46/0) [21/4]
|   |   |   |   |   Att390 >= 391.63
|   |   |   |   |   |   Att28 < 352.5 : 2 (8/0) [4/1]
|   |   |   |   |   |   Att28 >= 352.5 : 1 (9/1) [5/1]
|   |   |   |   Att241 >= 882.36 : 1 (13/1) [12/1]
|   |   |   Att821 >= 468.5
|   |   |   |   Att1323 < 1128 : 2 (11/2) [8/0]
|   |   |   |   Att1323 >= 1128
|   |   |   |   |   Att270 < 773.25 : 1 (35.5/0) [17.5/2]
|   |   |   |   |   Att270 >= 773.25 : 2 (8.8/4) [15/7]

Size of the tree : 145


REPTree
============

Att341 < 21.03
|   Att913 < 19.01
|   |   Att1870 < 239.35
|   |   |   Att341 < 15.1 : 2 (313.24/10.24) [153/5]
|   |   |   Att341 >= 15.1
|   |   |   |   Att254 < 65
|   |   |   |   |   Att1716 < 216.5
|   |   |   |   |   |   Att1281 < 172.5 : 2 (55.63/1) [34/0]
|   |   |   |   |   |   Att1281 >= 172.5
|   |   |   |   |   |   |   Att130 < 236
|   |   |   |   |   |   |   |   Att1331 < 0.5
|   |   |   |   |   |   |   |   |   Att11 < 239 : 1 (5/0) [4/1]
|   |   |   |   |   |   |   |   |   Att11 >= 239 : 2 (3/0) [3/0]
|   |   |   |   |   |   |   |   Att1331 >= 0.5 : 2 (53.79/0) [31.58/1]
|   |   |   |   |   |   |   Att130 >= 236 : 2 (43.2/21.2) [24/4]
|   |   |   |   |   Att1716 >= 216.5
|   |   |   |   |   |   Att1800 < 85.5
|   |   |   |   |   |   |   Att422 < 941.5 : 2 (13.21/0) [3.42/0]
|   |   |   |   |   |   |   Att422 >= 941.5 : 1 (3/0) [1/0]
|   |   |   |   |   |   Att1800 >= 85.5
|   |   |   |   |   |   |   Att353 < 19.68 : 1 (23/0) [14/3]
|   |   |   |   |   |   |   Att353 >= 19.68 : 2 (3/0) [1/0]
|   |   |   |   Att254 >= 65 : 2 (67/0) [33.63/1]
|   |   Att1870 >= 239.35 : 2 (347.37/0) [162.37/1]
|   Att913 >= 19.01
|   |   Att1716 < 193.02
|   |   |   Att317 < 0.74
|   |   |   |   Att978 < 81 : 2 (36/0) [14/1]
|   |   |   |   Att978 >= 81
|   |   |   |   |   Att1349 < -2.02 : 1 (15/0) [10/1]
|   |   |   |   |   Att1349 >= -2.02
|   |   |   |   |   |   Att720 < 54 : 2 (19/0) [7/1]
|   |   |   |   |   |   Att720 >= 54
|   |   |   |   |   |   |   Att1578 < 393.71
|   |   |   |   |   |   |   |   Att31 < 277 : 2 (4.74/1) [5/0]
|   |   |   |   |   |   |   |   Att31 >= 277 : 1 (18/0) [9/4]
|   |   |   |   |   |   |   Att1578 >= 393.71 : 2 (7/0) [7/0]
|   |   |   Att317 >= 0.74 : 2 (124/4) [63/6]
|   |   Att1716 >= 193.02
|   |   |   Att1131 < 70.47 : 2 (26/5) [12/1]
|   |   |   Att1131 >= 70.47 : 1 (51.58/3.7) [23.88/4]
Att341 >= 21.03
|   Att1832 < 1.98
|   |   Att729 < 0.01
|   |   |   Att55 < 354.5
|   |   |   |   Att152 < 1528 : 1 (73/21) [45.24/10]
|   |   |   |   Att152 >= 1528 : 2 (16/0) [7/1]
|   |   |   Att55 >= 354.5
|   |   |   |   Att1264 < 2538.5
|   |   |   |   |   Att1873 < 6508.5 : 2 (104/3) [50/2]
|   |   |   |   |   Att1873 >= 6508.5 : 1 (5/1) [3/1]
|   |   |   |   Att1264 >= 2538.5
|   |   |   |   |   Att108 < 46
|   |   |   |   |   |   Att421 < 290 : 1 (25/5) [14/2]
|   |   |   |   |   |   Att421 >= 290 : 2 (6/0) [4/0]
|   |   |   |   |   Att108 >= 46 : 2 (17/0) [6/1]
|   |   Att729 >= 0.01
|   |   |   Att1713 < 89.86
|   |   |   |   Att1267 < 14
|   |   |   |   |   Att150 < 30.38 : 2 (23/1) [8/2]
|   |   |   |   |   Att150 >= 30.38
|   |   |   |   |   |   Att766 < 26.71
|   |   |   |   |   |   |   Att1290 < 1142 : 2 (5/0) [2/1]
|   |   |   |   |   |   |   Att1290 >= 1142
|   |   |   |   |   |   |   |   Att1289 < 5.83 : 1 (37.12/0) [25/2]
|   |   |   |   |   |   |   |   Att1289 >= 5.83 : 2 (7/1) [4/1]
|   |   |   |   |   |   Att766 >= 26.71 : 2 (13/0) [5/0]
|   |   |   |   Att1267 >= 14
|   |   |   |   |   Att449 < 17.88
|   |   |   |   |   |   Att4 < 178.81
|   |   |   |   |   |   |   Att176 < 521.05
|   |   |   |   |   |   |   |   Att75 < 160.5
|   |   |   |   |   |   |   |   |   Att182 < 228.5
|   |   |   |   |   |   |   |   |   |   Att406 < 598.5 : 1 (10/0) [9/3]
|   |   |   |   |   |   |   |   |   |   Att406 >= 598.5 : 2 (30/3) [11/4]
|   |   |   |   |   |   |   |   |   Att182 >= 228.5 : 1 (14/0) [7/3]
|   |   |   |   |   |   |   |   Att75 >= 160.5
|   |   |   |   |   |   |   |   |   Att1407 < 2138
|   |   |   |   |   |   |   |   |   |   Att1001 < 11.61
|   |   |   |   |   |   |   |   |   |   |   Att33 < 65.91 : 2 (5/0) [1/0]
|   |   |   |   |   |   |   |   |   |   |   Att33 >= 65.91 : 1 (2.11/0) [1/0]
|   |   |   |   |   |   |   |   |   |   Att1001 >= 11.61
|   |   |   |   |   |   |   |   |   |   |   Att1766 < 14.01
|   |   |   |   |   |   |   |   |   |   |   |   Att1 < 712 : 1 (3.89/0) [1/0]
|   |   |   |   |   |   |   |   |   |   |   |   Att1 >= 712 : 2 (5/0) [4/2]
|   |   |   |   |   |   |   |   |   |   |   Att1766 >= 14.01
|   |   |   |   |   |   |   |   |   |   |   |   Att811 < 16.99 : 1 (174.97/1) [55.89/4]
|   |   |   |   |   |   |   |   |   |   |   |   Att811 >= 16.99
|   |   |   |   |   |   |   |   |   |   |   |   |   Att3 < 367.5 : 1 (4/0) [3/1]
|   |   |   |   |   |   |   |   |   |   |   |   |   Att3 >= 367.5 : 2 (3/0) [1/0]
|   |   |   |   |   |   |   |   |   Att1407 >= 2138 : 2 (13/4) [1/0]
|   |   |   |   |   |   |   Att176 >= 521.05
|   |   |   |   |   |   |   |   Att266 < 16.99
|   |   |   |   |   |   |   |   |   Att1084 < 10.72 : 1 (245.36/0) [133.76/6]
|   |   |   |   |   |   |   |   |   Att1084 >= 10.72
|   |   |   |   |   |   |   |   |   |   Att457 < 734.5 : 1 (27.88/0) [14/2]
|   |   |   |   |   |   |   |   |   |   Att457 >= 734.5
|   |   |   |   |   |   |   |   |   |   |   Att5 < 97 : 1 (2/0) [3/0]
|   |   |   |   |   |   |   |   |   |   |   Att5 >= 97 : 2 (3/0) [4/1]
|   |   |   |   |   |   |   |   Att266 >= 16.99 : 1 (26.2/7) [14.56/4]
|   |   |   |   |   |   Att4 >= 178.81
|   |   |   |   |   |   |   Att254 < 2.52
|   |   |   |   |   |   |   |   Att2 < 5.03 : 2 (3/0) [3/0]
|   |   |   |   |   |   |   |   Att2 >= 5.03 : 1 (8/0) [3/1]
|   |   |   |   |   |   |   Att254 >= 2.52 : 2 (15/0) [9/2]
|   |   |   |   |   Att449 >= 17.88 : 2 (17.03/1.03) [11.11/2.11]
|   |   |   Att1713 >= 89.86
|   |   |   |   Att913 < 20.24
|   |   |   |   |   Att1051 < 4.23 : 2 (61.12/2.12) [42/8]
|   |   |   |   |   Att1051 >= 4.23 : 1 (13/5) [7/2]
|   |   |   |   Att913 >= 20.24
|   |   |   |   |   Att571 < 542.88 : 2 (6/0) [8/3]
|   |   |   |   |   Att571 >= 542.88 : 1 (17/0) [10/2]
|   Att1832 >= 1.98
|   |   Att1716 < 231.5
|   |   |   Att1524 < 13.97 : 1 (12.11/0.11) [5.56/1]
|   |   |   Att1524 >= 13.97
|   |   |   |   Att56 < 17.23
|   |   |   |   |   Att106 < 19.5
|   |   |   |   |   |   Att1016 < 1066.32 : 2 (180.95/0) [78/2]
|   |   |   |   |   |   Att1016 >= 1066.32
|   |   |   |   |   |   |   Att254 < 35.7 : 2 (26/1) [8/2]
|   |   |   |   |   |   |   Att254 >= 35.7 : 1 (6/0) [3/1]
|   |   |   |   |   Att106 >= 19.5
|   |   |   |   |   |   Att38 < 1133.96
|   |   |   |   |   |   |   Att1407 < 1068.33
|   |   |   |   |   |   |   |   Att238 < -23.34 : 1 (6/0) [7/6]
|   |   |   |   |   |   |   |   Att238 >= -23.34
|   |   |   |   |   |   |   |   |   Att1684 < 935.5
|   |   |   |   |   |   |   |   |   |   Att1128 < 2033.5
|   |   |   |   |   |   |   |   |   |   |   Att1386 < 236 : 2 (35.95/1) [12/2]
|   |   |   |   |   |   |   |   |   |   |   Att1386 >= 236 : 1 (5/1) [2/0]
|   |   |   |   |   |   |   |   |   |   Att1128 >= 2033.5 : 1 (13/3) [14/2]
|   |   |   |   |   |   |   |   |   Att1684 >= 935.5 : 2 (50.87/0) [22.87/1]
|   |   |   |   |   |   |   Att1407 >= 1068.33 : 1 (10/1) [6/3]
|   |   |   |   |   |   Att38 >= 1133.96 : 2 (41.56/0) [20/1]
|   |   |   |   Att56 >= 17.23
|   |   |   |   |   Att1892 < 100
|   |   |   |   |   |   Att238 < 1.54
|   |   |   |   |   |   |   Att358 < 16.57 : 1 (23/0) [11/5]
|   |   |   |   |   |   |   Att358 >= 16.57 : 2 (6/2) [5/0]
|   |   |   |   |   |   Att238 >= 1.54
|   |   |   |   |   |   |   Att611 < 219.67 : 2 (12/0) [4/0]
|   |   |   |   |   |   |   Att611 >= 219.67 : 1 (4/0) [3/0]
|   |   |   |   |   Att1892 >= 100 : 2 (24/1) [12/0]
|   |   Att1716 >= 231.5
|   |   |   Att755 < 1207.5
|   |   |   |   Att584 < 15.4 : 2 (8/0) [4/0]
|   |   |   |   Att584 >= 15.4
|   |   |   |   |   Att1551 < 15.27 : 2 (12/4) [7/0]
|   |   |   |   |   Att1551 >= 15.27 : 1 (38/1) [24/4]
|   |   |   Att755 >= 1207.5 : 2 (13.13/0) [5.13/1]

Size of the tree : 153


REPTree
============

Att1161 < 130.15
|   Att1564 < 14.61
|   |   Att1131 < 44.5
|   |   |   Att1255 < 386.05
|   |   |   |   Att307 < 23.27
|   |   |   |   |   Att910 < 701.5 : 2 (60/2) [37/5]
|   |   |   |   |   Att910 >= 701.5 : 1 (3/0) [2/0]
|   |   |   |   Att307 >= 23.27 : 1 (4/0) [7/2]
|   |   |   Att1255 >= 386.05 : 2 (163/0) [85/2]
|   |   Att1131 >= 44.5
|   |   |   Att1328 < 3.99
|   |   |   |   Att975 < 11.5 : 2 (46/0) [25/3]
|   |   |   |   Att975 >= 11.5
|   |   |   |   |   Att254 < 44.5
|   |   |   |   |   |   Att1824 < 265 : 2 (54/7) [38/6]
|   |   |   |   |   |   Att1824 >= 265
|   |   |   |   |   |   |   Att1849 < 418
|   |   |   |   |   |   |   |   Att676 < 21 : 1 (5.15/0.15) [2/0]
|   |   |   |   |   |   |   |   Att676 >= 21 : 2 (29.85/2) [13.62/5]
|   |   |   |   |   |   |   Att1849 >= 418
|   |   |   |   |   |   |   |   Att1488 < 801
|   |   |   |   |   |   |   |   |   Att581 < 21.05
|   |   |   |   |   |   |   |   |   |   Att152 < 594.5 : 1 (21/4) [12/0]
|   |   |   |   |   |   |   |   |   |   Att152 >= 594.5 : 2 (12/0) [12/0]
|   |   |   |   |   |   |   |   |   Att581 >= 21.05
|   |   |   |   |   |   |   |   |   |   Att558 < 155.86
|   |   |   |   |   |   |   |   |   |   |   Att180 < 0.09 : 2 (5/2) [3/1]
|   |   |   |   |   |   |   |   |   |   |   Att180 >= 0.09 : 1 (115/2) [46/8]
|   |   |   |   |   |   |   |   |   |   Att558 >= 155.86 : 2 (5/0) [5/0]
|   |   |   |   |   |   |   |   Att1488 >= 801 : 2 (9/0) [8/0]
|   |   |   |   |   Att254 >= 44.5
|   |   |   |   |   |   Att1479 < 14.5
|   |   |   |   |   |   |   Att1133 < 55.5 : 2 (17.47/2) [8/0]
|   |   |   |   |   |   |   Att1133 >= 55.5 : 1 (11/1) [8/2]
|   |   |   |   |   |   Att1479 >= 14.5 : 2 (64/1) [32/2]
|   |   |   Att1328 >= 3.99
|   |   |   |   Att379 < 3397 : 2 (184/9) [84/8]
|   |   |   |   Att379 >= 3397 : 1 (6/0) [1/0]
|   Att1564 >= 14.61
|   |   Att365 < 9576.65 : 2 (490/4) [240.38/4]
|   |   Att365 >= 9576.65
|   |   |   Att79 < 1025 : 2 (4/0) [2/0]
|   |   |   Att79 >= 1025 : 1 (6/0) [2/0]
Att1161 >= 130.15
|   Att1832 < 1.96
|   |   Att753 < -0.04
|   |   |   Att1042 < 14.03
|   |   |   |   Att127 < 4.93
|   |   |   |   |   Att127 < 3.17
|   |   |   |   |   |   Att19 < 954 : 1 (7/1) [5/0]
|   |   |   |   |   |   Att19 >= 954 : 2 (27/1) [13/4]
|   |   |   |   |   Att127 >= 3.17
|   |   |   |   |   |   Att729 < 1.2
|   |   |   |   |   |   |   Att975 < 17.84 : 1 (10/0) [6/3]
|   |   |   |   |   |   |   Att975 >= 17.84
|   |   |   |   |   |   |   |   Att39 < 170.5 : 1 (3/0) [1/0]
|   |   |   |   |   |   |   |   Att39 >= 170.5 : 2 (13/0) [12/1]
|   |   |   |   |   |   Att729 >= 1.2 : 1 (34/0) [10/1]
|   |   |   |   Att127 >= 4.93
|   |   |   |   |   Att497 < 616.3 : 2 (49/1) [21/6]
|   |   |   |   |   Att497 >= 616.3
|   |   |   |   |   |   Att1094 < 230.3 : 1 (13/1) [5/2]
|   |   |   |   |   |   Att1094 >= 230.3
|   |   |   |   |   |   |   Att12 < 1009.97 : 2 (17/0) [10/1]
|   |   |   |   |   |   |   Att12 >= 1009.97 : 1 (2/0) [1/0]
|   |   |   Att1042 >= 14.03
|   |   |   |   Att1756 < 141
|   |   |   |   |   Att1690 < 225 : 2 (26/5) [8/2]
|   |   |   |   |   Att1690 >= 225
|   |   |   |   |   |   Att1504 < 1302.61
|   |   |   |   |   |   |   Att1573 < 1353.5
|   |   |   |   |   |   |   |   Att1057 < 15.02 : 2 (11/1) [5/0]
|   |   |   |   |   |   |   |   Att1057 >= 15.02
|   |   |   |   |   |   |   |   |   Att262 < 1.1
|   |   |   |   |   |   |   |   |   |   Att1471 < 0.14 : 2 (20/3) [13/1]
|   |   |   |   |   |   |   |   |   |   Att1471 >= 0.14 : 1 (14/0) [8/0]
|   |   |   |   |   |   |   |   |   Att262 >= 1.1
|   |   |   |   |   |   |   |   |   |   Att1617 < 3.86
|   |   |   |   |   |   |   |   |   |   |   Att1596 < 887
|   |   |   |   |   |   |   |   |   |   |   |   Att907 < 679.5
|   |   |   |   |   |   |   |   |   |   |   |   |   Att352 < 13.5 : 2 (5.08/0.08) [6/2]
|   |   |   |   |   |   |   |   |   |   |   |   |   Att352 >= 13.5
|   |   |   |   |   |   |   |   |   |   |   |   |   |   Att228 < 2992.47 : 1 (53/0) [30/4]
|   |   |   |   |   |   |   |   |   |   |   |   |   |   Att228 >= 2992.47
|   |   |   |   |   |   |   |   |   |   |   |   |   |   |   Att74 < 178.5 : 2 (3/0) [2/0]
|   |   |   |   |   |   |   |   |   |   |   |   |   |   |   Att74 >= 178.5 : 1 (2.34/0) [4.42/0]
|   |   |   |   |   |   |   |   |   |   |   |   Att907 >= 679.5 : 1 (92.42/0) [47.42/5]
|   |   |   |   |   |   |   |   |   |   |   Att1596 >= 887
|   |   |   |   |   |   |   |   |   |   |   |   Att1 < 787.5 : 1 (2/0) [1/0]
|   |   |   |   |   |   |   |   |   |   |   |   Att1 >= 787.5 : 2 (5/0) [0/0]
|   |   |   |   |   |   |   |   |   |   Att1617 >= 3.86
|   |   |   |   |   |   |   |   |   |   |   Att4 < 155.31 : 2 (7/0) [3/0]
|   |   |   |   |   |   |   |   |   |   |   Att4 >= 155.31 : 1 (2/0) [4/1]
|   |   |   |   |   |   |   Att1573 >= 1353.5
|   |   |   |   |   |   |   |   Att1020 < 5.97
|   |   |   |   |   |   |   |   |   Att357 < 15.03
|   |   |   |   |   |   |   |   |   |   Att2 < 12.33 : 2 (3/0) [2/0]
|   |   |   |   |   |   |   |   |   |   Att2 >= 12.33 : 1 (4/0) [5/3]
|   |   |   |   |   |   |   |   |   Att357 >= 15.03 : 1 (266.07/1) [124.16/7]
|   |   |   |   |   |   |   |   Att1020 >= 5.97 : 1 (27.09/9) [13/1]
|   |   |   |   |   |   Att1504 >= 1302.61 : 2 (16/2) [5/0]
|   |   |   |   Att1756 >= 141
|   |   |   |   |   Att1848 < 265
|   |   |   |   |   |   Att1312 < 182.5 : 1 (45/14) [28/10]
|   |   |   |   |   |   Att1312 >= 182.5 : 2 (14/0) [11/2]
|   |   |   |   |   Att1848 >= 265 : 2 (28/0) [8/1]
|   |   Att753 >= -0.04
|   |   |   Att1728 < 21437
|   |   |   |   Att425 < 23.5
|   |   |   |   |   Att79 < 1103.5
|   |   |   |   |   |   Att1253 < 1240.5
|   |   |   |   |   |   |   Att1530 < 4256 : 2 (36/0) [27/5]
|   |   |   |   |   |   |   Att1530 >= 4256
|   |   |   |   |   |   |   |   Att49 < 741 : 1 (4/0) [4/0]
|   |   |   |   |   |   |   |   Att49 >= 741 : 2 (3/0) [2/0]
|   |   |   |   |   |   Att1253 >= 1240.5 : 1 (5/0) [4/1]
|   |   |   |   |   Att79 >= 1103.5 : 1 (7/0) [5/2]
|   |   |   |   Att425 >= 23.5 : 2 (55/0) [23/2]
|   |   |   Att1728 >= 21437 : 1 (7/0) [6/4]
|   Att1832 >= 1.96
|   |   Att1716 < 201.48
|   |   |   Att152 < 331 : 2 (125.27/1) [47/1]
|   |   |   Att152 >= 331
|   |   |   |   Att1323 < 3132
|   |   |   |   |   Att1104 < 989.75
|   |   |   |   |   |   Att471 < 512 : 2 (54/1) [33/3]
|   |   |   |   |   |   Att471 >= 512
|   |   |   |   |   |   |   Att969 < 1.38 : 2 (30/0) [13/0]
|   |   |   |   |   |   |   Att969 >= 1.38
|   |   |   |   |   |   |   |   Att716 < 353.7 : 1 (12/1) [5/2]
|   |   |   |   |   |   |   |   Att716 >= 353.7
|   |   |   |   |   |   |   |   |   Att1705 < 4.17
|   |   |   |   |   |   |   |   |   |   Att232 < 1289.54
|   |   |   |   |   |   |   |   |   |   |   Att328 < 1352
|   |   |   |   |   |   |   |   |   |   |   |   Att1633 < 179.62
|   |   |   |   |   |   |   |   |   |   |   |   |   Att788 < 854.21
|   |   |   |   |   |   |   |   |   |   |   |   |   |   Att1161 < 206 : 2 (21/0) [7/0]
|   |   |   |   |   |   |   |   |   |   |   |   |   |   Att1161 >= 206 : 1 (2/0) [3/1]
|   |   |   |   |   |   |   |   |   |   |   |   |   Att788 >= 854.21 : 1 (4/0) [2/0]
|   |   |   |   |   |   |   |   |   |   |   |   Att1633 >= 179.62 : 2 (56/0) [24/1]
|   |   |   |   |   |   |   |   |   |   |   Att328 >= 1352 : 1 (4/0) [3/0]
|   |   |   |   |   |   |   |   |   |   Att232 >= 1289.54 : 1 (6/0) [4/1]
|   |   |   |   |   |   |   |   |   Att1705 >= 4.17
|   |   |   |   |   |   |   |   |   |   Att279 < 1071.5 : 1 (15/1) [5/2]
|   |   |   |   |   |   |   |   |   |   Att279 >= 1071.5 : 2 (5/0) [2/0]
|   |   |   |   |   Att1104 >= 989.75 : 2 (63/0) [28/3]
|   |   |   |   Att1323 >= 3132 : 1 (8/0) [6/2]
|   |   Att1716 >= 201.48
|   |   |   Att919 < 154.5
|   |   |   |   Att428 < 334.5 : 2 (14/1) [5/1]
|   |   |   |   Att428 >= 334.5
|   |   |   |   |   Att1504 < 2333
|   |   |   |   |   |   Att15 < 15
|   |   |   |   |   |   |   Att40 < 317 : 2 (7.26/0) [4/0]
|   |   |   |   |   |   |   Att40 >= 317 : 1 (5/0) [6/2]
|   |   |   |   |   |   Att15 >= 15
|   |   |   |   |   |   |   Att162 < 1532 : 1 (89/1) [38/10]
|   |   |   |   |   |   |   Att162 >= 1532 : 2 (2/0) [1/0]
|   |   |   |   |   Att1504 >= 2333 : 2 (9/0) [4/2]
|   |   |   Att919 >= 154.5 : 2 (16/0) [4/0]

Size of the tree : 161


REPTree
============

Att341 < 21.03
|   Att449 < 14.96
|   |   Att673 < 133.08
|   |   |   Att1636 < 11.71
|   |   |   |   Att200 < 137.65 : 1 (17/1) [3/0]
|   |   |   |   Att200 >= 137.65 : 2 (6/0) [5/0]
|   |   |   Att1636 >= 11.71
|   |   |   |   Att1800 < 33050.58
|   |   |   |   |   Att607 < 61.5 : 2 (216/0) [106.44/3]
|   |   |   |   |   Att607 >= 61.5
|   |   |   |   |   |   Att312 < 1957.5
|   |   |   |   |   |   |   Att1529 < 343.78
|   |   |   |   |   |   |   |   Att1650 < 399.36
|   |   |   |   |   |   |   |   |   Att1382 < 313.81 : 2 (5.44/1) [1.44/0]
|   |   |   |   |   |   |   |   |   Att1382 >= 313.81 : 1 (10/0) [5/2]
|   |   |   |   |   |   |   |   Att1650 >= 399.36 : 2 (12/0) [3/1]
|   |   |   |   |   |   |   Att1529 >= 343.78
|   |   |   |   |   |   |   |   Att1487 < 4814.46 : 2 (93/1) [43.96/5]
|   |   |   |   |   |   |   |   Att1487 >= 4814.46
|   |   |   |   |   |   |   |   |   Att7 < 1114.5 : 1 (3/0) [5/2]
|   |   |   |   |   |   |   |   |   Att7 >= 1114.5 : 2 (2/0) [2/0]
|   |   |   |   |   |   Att312 >= 1957.5 : 1 (5.46/0) [1.04/0.04]
|   |   |   |   Att1800 >= 33050.58 : 1 (5/0) [1/0]
|   |   Att673 >= 133.08
|   |   |   Att1081 < 4.14 : 2 (34/0) [13/0]
|   |   |   Att1081 >= 4.14
|   |   |   |   Att104 < 838.34
|   |   |   |   |   Att1267 < 14.4 : 2 (16/1) [5/1]
|   |   |   |   |   Att1267 >= 14.4
|   |   |   |   |   |   Att902 < 979
|   |   |   |   |   |   |   Att1404 < 15.63 : 2 (7/0) [4/1]
|   |   |   |   |   |   |   Att1404 >= 15.63
|   |   |   |   |   |   |   |   Att1801 < 3.91
|   |   |   |   |   |   |   |   |   Att1743 < 5.94 : 1 (100/0) [35/7]
|   |   |   |   |   |   |   |   |   Att1743 >= 5.94
|   |   |   |   |   |   |   |   |   |   Att1 < 762.28 : 1 (3/0) [4/0]
|   |   |   |   |   |   |   |   |   |   Att1 >= 762.28 : 2 (3/0) [2/0]
|   |   |   |   |   |   |   |   Att1801 >= 3.91 : 2 (3.46/0) [1/0]
|   |   |   |   |   |   Att902 >= 979 : 2 (10/1) [4/1]
|   |   |   |   Att104 >= 838.34 : 2 (23/2) [16/4]
|   Att449 >= 14.96
|   |   Att536 < 13.65
|   |   |   Att198 < 47.5 : 1 (9/0) [2/1]
|   |   |   Att198 >= 47.5
|   |   |   |   Att1810 < 135.47
|   |   |   |   |   Att1100 < 10140.5 : 2 (269/8) [129/6]
|   |   |   |   |   Att1100 >= 10140.5 : 1 (5.04/1.04) [2/0]
|   |   |   |   Att1810 >= 135.47
|   |   |   |   |   Att458 < 4.28 : 2 (59/4) [32/2]
|   |   |   |   |   Att458 >= 4.28
|   |   |   |   |   |   Att297 < 281.28 : 1 (16/0) [5/0]
|   |   |   |   |   |   Att297 >= 281.28 : 2 (16/4) [11/0]
|   |   Att536 >= 13.65 : 2 (344.51/1) [144.11/0]
Att341 >= 21.03
|   Att1832 < 2
|   |   Att673 < 80.05
|   |   |   Att1042 < 17.08 : 2 (123/14) [56/8]
|   |   |   Att1042 >= 17.08
|   |   |   |   Att937 < 611.22
|   |   |   |   |   Att867 < 17.5
|   |   |   |   |   |   Att10 < 1655.5 : 2 (18/0) [6/2]
|   |   |   |   |   |   Att10 >= 1655.5 : 1 (2/0) [1/0]
|   |   |   |   |   Att867 >= 17.5 : 1 (10/0) [2/1]
|   |   |   |   Att937 >= 611.22 : 1 (25/0) [13/3]
|   |   Att673 >= 80.05
|   |   |   Att470 < 161.5
|   |   |   |   Att1573 < 1199.79
|   |   |   |   |   Att1479 < 63.5
|   |   |   |   |   |   Att1850 < 42.8
|   |   |   |   |   |   |   Att738 < 61.96 : 1 (32/7) [14/4]
|   |   |   |   |   |   |   Att738 >= 61.96
|   |   |   |   |   |   |   |   Att86 < 2236
|   |   |   |   |   |   |   |   |   Att159 < 1717
|   |   |   |   |   |   |   |   |   |   Att1724 < 204.5 : 2 (49/1) [27/10]
|   |   |   |   |   |   |   |   |   |   Att1724 >= 204.5 : 1 (3/0) [6/1]
|   |   |   |   |   |   |   |   |   Att159 >= 1717 : 1 (8/1) [7/4]
|   |   |   |   |   |   |   |   Att86 >= 2236 : 1 (8/0) [5/2]
|   |   |   |   |   |   Att1850 >= 42.8
|   |   |   |   |   |   |   Att128 < 3.9
|   |   |   |   |   |   |   |   Att340 < 11.5
|   |   |   |   |   |   |   |   |   Att19 < 476 : 1 (5/1) [4/1]
|   |   |   |   |   |   |   |   |   Att19 >= 476 : 2 (13/0) [5/0]
|   |   |   |   |   |   |   |   Att340 >= 11.5
|   |   |   |   |   |   |   |   |   Att425 < 275.04
|   |   |   |   |   |   |   |   |   |   Att777 < 4074.5
|   |   |   |   |   |   |   |   |   |   |   Att1743 < 4.5 : 1 (146/0) [72/6]
|   |   |   |   |   |   |   |   |   |   |   Att1743 >= 4.5
|   |   |   |   |   |   |   |   |   |   |   |   Att660 < 1153.35 : 2 (5/0) [5/0]
|   |   |   |   |   |   |   |   |   |   |   |   Att660 >= 1153.35 : 1 (18/0) [7/3]
|   |   |   |   |   |   |   |   |   |   Att777 >= 4074.5 : 2 (9/3) [2/1]
|   |   |   |   |   |   |   |   |   Att425 >= 275.04 : 1 (24/11) [22/7]
|   |   |   |   |   |   |   Att128 >= 3.9
|   |   |   |   |   |   |   |   Att1144 < 291
|   |   |   |   |   |   |   |   |   Att107 < 400.5 : 1 (3/0) [3/1]
|   |   |   |   |   |   |   |   |   Att107 >= 400.5 : 2 (24/0) [13/3]
|   |   |   |   |   |   |   |   Att1144 >= 291 : 1 (15/2) [6/1]
|   |   |   |   |   Att1479 >= 63.5 : 2 (38.96/6) [13.96/1]
|   |   |   |   Att1573 >= 1199.79
|   |   |   |   |   Att30 < 17
|   |   |   |   |   |   Att1756 < 186 : 1 (338/16) [185/19]
|   |   |   |   |   |   Att1756 >= 186
|   |   |   |   |   |   |   Att70 < 431.5 : 2 (10/0) [12/4]
|   |   |   |   |   |   |   Att70 >= 431.5 : 1 (10/1) [8/2]
|   |   |   |   |   Att30 >= 17
|   |   |   |   |   |   Att222 < 1072.5 : 1 (35/9) [10/3]
|   |   |   |   |   |   Att222 >= 1072.5 : 2 (17/0) [9/1]
|   |   |   Att470 >= 161.5 : 2 (38.04/4) [17.04/5]
|   Att1832 >= 2
|   |   Att1355 < 62.5
|   |   |   Att1716 < 225.54
|   |   |   |   Att1042 < 13.5 : 2 (108.54/5) [62/6]
|   |   |   |   Att1042 >= 13.5
|   |   |   |   |   Att1700 < 1.17
|   |   |   |   |   |   Att389 < 1471 : 2 (49/0) [31/1]
|   |   |   |   |   |   Att389 >= 1471
|   |   |   |   |   |   |   Att1 < 215 : 2 (4/0) [3/1]
|   |   |   |   |   |   |   Att1 >= 215 : 1 (3/0) [4/1]
|   |   |   |   |   Att1700 >= 1.17
|   |   |   |   |   |   Att317 < 1.94
|   |   |   |   |   |   |   Att236 < 274
|   |   |   |   |   |   |   |   Att1264 < 1861.5 : 2 (6/0) [15/5]
|   |   |   |   |   |   |   |   Att1264 >= 1861.5 : 1 (4.54/0) [2/0]
|   |   |   |   |   |   |   Att236 >= 274 : 1 (26/0) [14/5]
|   |   |   |   |   |   Att317 >= 1.94
|   |   |   |   |   |   |   Att1321 < 15.9
|   |   |   |   |   |   |   |   Att1462 < 955
|   |   |   |   |   |   |   |   |   Att46 < 1174 : 1 (21/0) [11/5]
|   |   |   |   |   |   |   |   |   Att46 >= 1174 : 2 (3/0) [1/0]
|   |   |   |   |   |   |   |   Att1462 >= 955 : 2 (9/0) [4/0]
|   |   |   |   |   |   |   Att1321 >= 15.9
|   |   |   |   |   |   |   |   Att121 < 48.51 : 1 (4/0) [1/1]
|   |   |   |   |   |   |   |   Att121 >= 48.51
|   |   |   |   |   |   |   |   |   Att1551 < 15.67
|   |   |   |   |   |   |   |   |   |   Att25 < 90.33 : 2 (6/0) [5/2]
|   |   |   |   |   |   |   |   |   |   Att25 >= 90.33 : 1 (6/1) [5/2]
|   |   |   |   |   |   |   |   |   Att1551 >= 15.67
|   |   |   |   |   |   |   |   |   |   Att881 < 17.5 : 2 (55/0) [28/4]
|   |   |   |   |   |   |   |   |   |   Att881 >= 17.5
|   |   |   |   |   |   |   |   |   |   |   Att1 < 510 : 2 (2/0) [2/0]
|   |   |   |   |   |   |   |   |   |   |   Att1 >= 510 : 1 (2/0) [3/1]
|   |   |   Att1716 >= 225.54
|   |   |   |   Att470 < 177.5
|   |   |   |   |   Att1163 < 642.46 : 1 (56/5) [37.72/9.72]
|   |   |   |   |   Att1163 >= 642.46 : 2 (9/0) [4.28/0]
|   |   |   |   Att470 >= 177.5 : 2 (13/0) [5/0]
|   |   Att1355 >= 62.5 : 2 (93/0) [45/1]

Size of the tree : 147


REPTree
============

Att341 < 20.03
|   Att913 < 19.01
|   |   Att611 < 169.5 : 2 (322.38/0) [147.79/4]
|   |   Att611 >= 169.5
|   |   |   Att1716 < 209.66
|   |   |   |   Att6 < 103
|   |   |   |   |   Att1657 < 106.5 : 2 (112/10) [78/3]
|   |   |   |   |   Att1657 >= 106.5 : 1 (8/0) [3/1]
|   |   |   |   Att6 >= 103 : 2 (294.62/1) [147.04/2.43]
|   |   |   Att1716 >= 209.66
|   |   |   |   Att597 < 771.41
|   |   |   |   |   Att518 < 838.31
|   |   |   |   |   |   Att1338 < 1852 : 2 (58/0) [32/3]
|   |   |   |   |   |   Att1338 >= 1852
|   |   |   |   |   |   |   Att56 < 14.5 : 1 (4/0) [3/0]
|   |   |   |   |   |   |   Att56 >= 14.5 : 2 (8/0) [9/0]
|   |   |   |   |   Att518 >= 838.31 : 1 (12/2) [5/2]
|   |   |   |   Att597 >= 771.41 : 1 (23/3) [10/5]
|   Att913 >= 19.01
|   |   Att1780 < 17.01
|   |   |   Att1042 < 16.16
|   |   |   |   Att231 < 712.89 : 2 (176/9) [91.59/16]
|   |   |   |   Att231 >= 712.89
|   |   |   |   |   Att233 < 714.45 : 2 (24/1) [7/0]
|   |   |   |   |   Att233 >= 714.45
|   |   |   |   |   |   Att48 < 845 : 1 (14/0) [4/0]
|   |   |   |   |   |   Att48 >= 845 : 2 (3/0) [1/0]
|   |   |   Att1042 >= 16.16
|   |   |   |   Att1872 < 176.5 : 2 (71.43/20.43) [23/6]
|   |   |   |   Att1872 >= 176.5 : 1 (22.43/0) [10.43/1]
|   |   Att1780 >= 17.01 : 1 (40/5) [11.85/1.85]
Att341 >= 20.03
|   Att1832 < 2
|   |   Att180 < 2.02
|   |   |   Att1602 < 45.88
|   |   |   |   Att1701 < 22.5
|   |   |   |   |   Att1765 < 578
|   |   |   |   |   |   Att520 < 1721 : 2 (50.49/0) [18/3]
|   |   |   |   |   |   Att520 >= 1721
|   |   |   |   |   |   |   Att54 < 161 : 2 (5/0) [3/2]
|   |   |   |   |   |   |   Att54 >= 161 : 1 (4/0) [1/0]
|   |   |   |   |   Att1765 >= 578 : 1 (18/7) [7/1]
|   |   |   |   Att1701 >= 22.5
|   |   |   |   |   Att1517 < 146
|   |   |   |   |   |   Att1529 < 1070.99
|   |   |   |   |   |   |   Att865 < 6422.5
|   |   |   |   |   |   |   |   Att128 < 3.92
|   |   |   |   |   |   |   |   |   Att1269 < 780.2
|   |   |   |   |   |   |   |   |   |   Att1542 < 368.91 : 1 (36/0) [22.84/3.84]
|   |   |   |   |   |   |   |   |   |   Att1542 >= 368.91
|   |   |   |   |   |   |   |   |   |   |   Att1551 < 15.21 : 2 (11/1) [3/1]
|   |   |   |   |   |   |   |   |   |   |   Att1551 >= 15.21 : 1 (38/5) [12/5]
|   |   |   |   |   |   |   |   |   Att1269 >= 780.2 : 1 (66/0) [36/6]
|   |   |   |   |   |   |   |   Att128 >= 3.92
|   |   |   |   |   |   |   |   |   Att1184 < 0.5 : 2 (15.51/0) [8/0]
|   |   |   |   |   |   |   |   |   Att1184 >= 0.5
|   |   |   |   |   |   |   |   |   |   Att1 < 849.5 : 1 (14/0) [1/0]
|   |   |   |   |   |   |   |   |   |   Att1 >= 849.5 : 2 (2/0) [4/0]
|   |   |   |   |   |   |   Att865 >= 6422.5 : 2 (10/0) [4/1]
|   |   |   |   |   |   Att1529 >= 1070.99 : 2 (17/1) [7.16/0]
|   |   |   |   |   Att1517 >= 146 : 2 (32/3) [19/5]
|   |   |   Att1602 >= 45.88
|   |   |   |   Att1087 < 123 : 2 (72/2) [39/4]
|   |   |   |   Att1087 >= 123
|   |   |   |   |   Att1519 < 144.5
|   |   |   |   |   |   Att333 < 400.5 : 2 (5/0) [2/0]
|   |   |   |   |   |   Att333 >= 400.5 : 1 (16/2) [11/2]
|   |   |   |   |   Att1519 >= 144.5 : 2 (20/0) [9/3]
|   |   Att180 >= 2.02
|   |   |   Att975 < 12.09 : 2 (39/5) [23/3]
|   |   |   Att975 >= 12.09
|   |   |   |   Att1235 < 99.5
|   |   |   |   |   Att1467 < 0.81
|   |   |   |   |   |   Att221 < 56.5 : 1 (20/0) [10/1]
|   |   |   |   |   |   Att221 >= 56.5 : 2 (3/0) [2/0]
|   |   |   |   |   Att1467 >= 0.81
|   |   |   |   |   |   Att583 < 960.5
|   |   |   |   |   |   |   Att910 < 1552 : 2 (34/0) [23/9]
|   |   |   |   |   |   |   Att910 >= 1552 : 1 (4/1) [2/0]
|   |   |   |   |   |   Att583 >= 960.5 : 1 (4/0) [2/0]
|   |   |   |   Att1235 >= 99.5
|   |   |   |   |   Att273 < 315.5 : 2 (10/0) [18/5]
|   |   |   |   |   Att273 >= 315.5
|   |   |   |   |   |   Att454 < 134
|   |   |   |   |   |   |   Att1289 < 6
|   |   |   |   |   |   |   |   Att1678 < 2089.01
|   |   |   |   |   |   |   |   |   Att1637 < 2045.5
|   |   |   |   |   |   |   |   |   |   Att1398 < 10.1 : 2 (2/0) [0/0]
|   |   |   |   |   |   |   |   |   |   Att1398 >= 10.1
|   |   |   |   |   |   |   |   |   |   |   Att637 < 13399.25 : 1 (399.49/4) [219.57/14]
|   |   |   |   |   |   |   |   |   |   |   Att637 >= 13399.25 : 2 (2/0) [2/0]
|   |   |   |   |   |   |   |   |   Att1637 >= 2045.5 : 2 (11/5.03) [5.97/2]
|   |   |   |   |   |   |   |   Att1678 >= 2089.01 : 2 (5/0) [6/2]
|   |   |   |   |   |   |   Att1289 >= 6
|   |   |   |   |   |   |   |   Att1326 < 254.5 : 1 (21/0) [8/0]
|   |   |   |   |   |   |   |   Att1326 >= 254.5
|   |   |   |   |   |   |   |   |   Att552 < 1224
|   |   |   |   |   |   |   |   |   |   Att258 < 3.5 : 2 (4/0) [3/0]
|   |   |   |   |   |   |   |   |   |   Att258 >= 3.5 : 1 (16/0) [7/1]
|   |   |   |   |   |   |   |   |   Att552 >= 1224 : 2 (17/0) [6/3]
|   |   |   |   |   |   Att454 >= 134 : 2 (14.09/3.06) [3.03/0]
|   Att1832 >= 2
|   |   Att627 < 412.5
|   |   |   Att1716 < 166.5
|   |   |   |   Att288 < 6265.5
|   |   |   |   |   Att763 < 544.04 : 2 (71/0) [33/3]
|   |   |   |   |   Att763 >= 544.04
|   |   |   |   |   |   Att1826 < 539.5
|   |   |   |   |   |   |   Att134 < 587.5 : 2 (15/2) [11/1]
|   |   |   |   |   |   |   Att134 >= 587.5 : 1 (13/1) [7/2]
|   |   |   |   |   |   Att1826 >= 539.5 : 2 (101/7) [48/5]
|   |   |   |   Att288 >= 6265.5
|   |   |   |   |   Att743 < 1948.72 : 1 (20/0) [10/3]
|   |   |   |   |   Att743 >= 1948.72
|   |   |   |   |   |   Att28 < 321.5 : 1 (3/0) [2/0]
|   |   |   |   |   |   Att28 >= 321.5 : 2 (16/0) [9/0]
|   |   |   Att1716 >= 166.5
|   |   |   |   Att211 < 1040.5
|   |   |   |   |   Att352 < 15.97
|   |   |   |   |   |   Att313 < 1.12
|   |   |   |   |   |   |   Att539 < 458.5 : 2 (18/1) [12/0]
|   |   |   |   |   |   |   Att539 >= 458.5 : 1 (7/0) [3/0]
|   |   |   |   |   |   Att313 >= 1.12
|   |   |   |   |   |   |   Att18 < 158.5
|   |   |   |   |   |   |   |   Att1686 < 1028.5 : 1 (80.57/0) [26.57/5]
|   |   |   |   |   |   |   |   Att1686 >= 1028.5
|   |   |   |   |   |   |   |   |   Att1390 < 713.85 : 2 (6/0) [4/0]
|   |   |   |   |   |   |   |   |   Att1390 >= 713.85 : 1 (5/0) [5/2]
|   |   |   |   |   |   |   Att18 >= 158.5 : 2 (7/0) [1/0]
|   |   |   |   |   Att352 >= 15.97
|   |   |   |   |   |   Att1528 < 17.26
|   |   |   |   |   |   |   Att136 < 687.5 : 2 (31/0) [17/3]
|   |   |   |   |   |   |   Att136 >= 687.5 : 1 (5/2) [1/0]
|   |   |   |   |   |   Att1528 >= 17.26 : 1 (8/0) [5/1]
|   |   |   |   Att211 >= 1040.5
|   |   |   |   |   Att815 < 20.5 : 2 (48/4) [22.15/3]
|   |   |   |   |   Att815 >= 20.5 : 1 (5/0) [1/0]
|   |   Att627 >= 412.5 : 2 (110/0) [51/3]

Size of the tree : 139


REPTree
============

Att341 < 22
|   Att913 < 19.01
|   |   Att1894 < 52.84
|   |   |   Att1716 < 215.5
|   |   |   |   Att1832 < 1.7
|   |   |   |   |   Att589 < 144.5 : 2 (120/14) [48.8/10]
|   |   |   |   |   Att589 >= 144.5
|   |   |   |   |   |   Att418 < -5.5 : 2 (6/0) [9/1]
|   |   |   |   |   |   Att418 >= -5.5 : 1 (13/0) [3/1]
|   |   |   |   Att1832 >= 1.7 : 2 (211.5/2.5) [92/9]
|   |   |   Att1716 >= 215.5
|   |   |   |   Att872 < 1265.5
|   |   |   |   |   Att1107 < 1557.43
|   |   |   |   |   |   Att3 < 3702.5 : 2 (14/0) [8.2/0]
|   |   |   |   |   |   Att3 >= 3702.5 : 1 (2/0) [2/0]
|   |   |   |   |   Att1107 >= 1557.43
|   |   |   |   |   |   Att1351 < 893.5
|   |   |   |   |   |   |   Att1 < 380.96 : 1 (2/0) [1/0]
|   |   |   |   |   |   |   Att1 >= 380.96 : 2 (5/0) [9/1]
|   |   |   |   |   |   Att1351 >= 893.5 : 1 (29/0) [13/4]
|   |   |   |   Att872 >= 1265.5 : 2 (35/0) [19/3]
|   |   Att1894 >= 52.84
|   |   |   Att1738 < 1514.5 : 2 (562.83/3) [290.47/6]
|   |   |   Att1738 >= 1514.5
|   |   |   |   Att555 < 216.5 : 2 (28.17/1) [20/3]
|   |   |   |   Att555 >= 216.5 : 1 (6/0) [3/0]
|   Att913 >= 19.01
|   |   Att551 < 155.5
|   |   |   Att1848 < 1230.5
|   |   |   |   Att119 < 250 : 2 (117/1) [52/6]
|   |   |   |   Att119 >= 250 : 1 (2/0) [2/0]
|   |   |   Att1848 >= 1230.5
|   |   |   |   Att5 < 581.26 : 2 (3/0) [3/1]
|   |   |   |   Att5 >= 581.26 : 1 (5/0) [1/0]
|   |   Att551 >= 155.5
|   |   |   Att863 < 75.14
|   |   |   |   Att1160 < 550.5 : 2 (74/4) [37/3]
|   |   |   |   Att1160 >= 550.5
|   |   |   |   |   Att531 < 734.72 : 1 (10/0) [4/0]
|   |   |   |   |   Att531 >= 734.72 : 2 (20/6) [13/1]
|   |   |   Att863 >= 75.14
|   |   |   |   Att1189 < 171.66
|   |   |   |   |   Att272 < 187.4
|   |   |   |   |   |   Att1819 < 513.34 : 2 (4.04/0) [8.04/0]
|   |   |   |   |   |   Att1819 >= 513.34 : 1 (91.47/2.46) [35.99/8.49]
|   |   |   |   |   Att272 >= 187.4 : 2 (5/0) [2/1]
|   |   |   |   Att1189 >= 171.66
|   |   |   |   |   Att487 < 781.94 : 2 (30/2) [16/1]
|   |   |   |   |   Att487 >= 781.94
|   |   |   |   |   |   Att25 < 54.91 : 2 (3/0) [4/0]
|   |   |   |   |   |   Att25 >= 54.91 : 1 (10/0) [5/2]
Att341 >= 22
|   Att1832 < 1.95
|   |   Att1042 < 16.01
|   |   |   Att1464 < 3702.5
|   |   |   |   Att891 < 1.04
|   |   |   |   |   Att80 < 225
|   |   |   |   |   |   Att1393 < 374.4 : 1 (9/0) [8/0]
|   |   |   |   |   |   Att1393 >= 374.4
|   |   |   |   |   |   |   Att394 < 19.5 : 2 (20/0) [8/3]
|   |   |   |   |   |   |   Att394 >= 19.5 : 1 (2/0) [1/0]
|   |   |   |   |   Att80 >= 225 : 2 (71.69/1) [39.67/10]
|   |   |   |   Att891 >= 1.04
|   |   |   |   |   Att1549 < 103.5
|   |   |   |   |   |   Att238 < 5.5
|   |   |   |   |   |   |   Att978 < 64.5
|   |   |   |   |   |   |   |   Att1227 < 90
|   |   |   |   |   |   |   |   |   Att638 < 512 : 1 (3/0) [5/1]
|   |   |   |   |   |   |   |   |   Att638 >= 512 : 2 (18/0) [12/1]
|   |   |   |   |   |   |   |   Att1227 >= 90 : 1 (6/0) [1/0]
|   |   |   |   |   |   |   Att978 >= 64.5
|   |   |   |   |   |   |   |   Att1557 < 53.9
|   |   |   |   |   |   |   |   |   Att38 < 1986.26
|   |   |   |   |   |   |   |   |   |   Att648 < 5.97 : 1 (54/0) [22/3]
|   |   |   |   |   |   |   |   |   |   Att648 >= 5.97 : 2 (2/0) [5/1]
|   |   |   |   |   |   |   |   |   Att38 >= 1986.26 : 2 (3/0) [3/1]
|   |   |   |   |   |   |   |   Att1557 >= 53.9
|   |   |   |   |   |   |   |   |   Att125 < 809 : 2 (11/1) [11/2]
|   |   |   |   |   |   |   |   |   Att125 >= 809 : 1 (6/0) [5/1]
|   |   |   |   |   |   Att238 >= 5.5
|   |   |   |   |   |   |   Att13 < 1647.5 : 2 (29.67/1) [11/0]
|   |   |   |   |   |   |   Att13 >= 1647.5 : 1 (4/0) [2/0]
|   |   |   |   |   Att1549 >= 103.5
|   |   |   |   |   |   Att119 < 8.5 : 1 (2/0) [2/0]
|   |   |   |   |   |   Att119 >= 8.5 : 2 (28/0) [14/4]
|   |   |   Att1464 >= 3702.5
|   |   |   |   Att4 < 175
|   |   |   |   |   Att300 < 432.84
|   |   |   |   |   |   Att46 < 356.8 : 2 (6.33/1) [6.33/3]
|   |   |   |   |   |   Att46 >= 356.8
|   |   |   |   |   |   |   Att877 < 89.24
|   |   |   |   |   |   |   |   Att29 < 32
|   |   |   |   |   |   |   |   |   Att28 < 813.51 : 1 (14/0) [9/2]
|   |   |   |   |   |   |   |   |   Att28 >= 813.51 : 2 (2/0) [1/0]
|   |   |   |   |   |   |   |   Att29 >= 32 : 2 (5/0) [2/1]
|   |   |   |   |   |   |   Att877 >= 89.24
|   |   |   |   |   |   |   |   Att867 < 14.04
|   |   |   |   |   |   |   |   |   Att1 < 893.5 : 2 (2/0) [1/0]
|   |   |   |   |   |   |   |   |   Att1 >= 893.5 : 1 (5/0) [2/0]
|   |   |   |   |   |   |   |   Att867 >= 14.04 : 1 (74/0) [26/2]
|   |   |   |   |   Att300 >= 432.84 : 2 (6/0) [4/3]
|   |   |   |   Att4 >= 175 : 2 (17.31/1) [5/1]
|   |   Att1042 >= 16.01
|   |   |   Att1122 < 235.79
|   |   |   |   Att449 < 17.5
|   |   |   |   |   Att585 < 0.01
|   |   |   |   |   |   Att1039 < 25.57
|   |   |   |   |   |   |   Att1808 < 1.5 : 2 (14/3) [13/5]
|   |   |   |   |   |   |   Att1808 >= 1.5 : 1 (139/15) [54/7]
|   |   |   |   |   |   Att1039 >= 25.57
|   |   |   |   |   |   |   Att1124 < 951.5
|   |   |   |   |   |   |   |   Att48 < 11.5 : 1 (9/0) [5/0]
|   |   |   |   |   |   |   |   Att48 >= 11.5
|   |   |   |   |   |   |   |   |   Att989 < 2671.5 : 2 (30/0) [12/2]
|   |   |   |   |   |   |   |   |   Att989 >= 2671.5
|   |   |   |   |   |   |   |   |   |   Att8 < 134.5 : 2 (3/0) [5/1]
|   |   |   |   |   |   |   |   |   |   Att8 >= 134.5 : 1 (5/0) [5/1]
|   |   |   |   |   |   |   Att1124 >= 951.5 : 1 (14/0) [10/0]
|   |   |   |   |   Att585 >= 0.01
|   |   |   |   |   |   Att258 < 1
|   |   |   |   |   |   |   Att1188 < 541.9 : 2 (7.97/0) [4/0]
|   |   |   |   |   |   |   Att1188 >= 541.9 : 1 (6/0) [3/0]
|   |   |   |   |   |   Att258 >= 1
|   |   |   |   |   |   |   Att582 < 132.5
|   |   |   |   |   |   |   |   Att850 < 1623.5
|   |   |   |   |   |   |   |   |   Att1081 < 79.15 : 1 (258.5/0) [119.5/9]
|   |   |   |   |   |   |   |   |   Att1081 >= 79.15
|   |   |   |   |   |   |   |   |   |   Att75 < 434 : 1 (7/0) [4/0]
|   |   |   |   |   |   |   |   |   |   Att75 >= 434 : 2 (3/0) [1/0]
|   |   |   |   |   |   |   |   Att850 >= 1623.5 : 2 (4/1) [1/0]
|   |   |   |   |   |   |   Att582 >= 132.5 : 1 (16/6) [8/3]
|   |   |   |   Att449 >= 17.5 : 2 (10/0) [5/3]
|   |   |   Att1122 >= 235.79 : 2 (19.03/1) [9/2]
|   Att1832 >= 1.95
|   |   Att1716 < 179.14 : 2 (250.5/24.5) [122.56/16]
|   |   Att1716 >= 179.14
|   |   |   Att387 < 1298.66
|   |   |   |   Att1372 < 116.5
|   |   |   |   |   Att18 < 147.16
|   |   |   |   |   |   Att153 < 1218.71
|   |   |   |   |   |   |   Att977 < 0.05 : 2 (9/1) [4/1]
|   |   |   |   |   |   |   Att977 >= 0.05
|   |   |   |   |   |   |   |   Att1081 < 114.5
|   |   |   |   |   |   |   |   |   Att453 < 540.5 : 2 (3/0) [2/0]
|   |   |   |   |   |   |   |   |   Att453 >= 540.5
|   |   |   |   |   |   |   |   |   |   Att1844 < 57.78 : 1 (61/0) [36.44/6.44]
|   |   |   |   |   |   |   |   |   |   Att1844 >= 57.78
|   |   |   |   |   |   |   |   |   |   |   Att863 < 66.2 : 2 (4/0) [5/1]
|   |   |   |   |   |   |   |   |   |   |   Att863 >= 66.2 : 1 (13.99/0.5) [5/0]
|   |   |   |   |   |   |   |   Att1081 >= 114.5 : 2 (5/0) [2/0]
|   |   |   |   |   |   Att153 >= 1218.71 : 2 (12/0) [4/1]
|   |   |   |   |   Att18 >= 147.16 : 2 (24/2) [17/1]
|   |   |   |   Att1372 >= 116.5 : 2 (25/0) [14/0]
|   |   |   Att387 >= 1298.66 : 2 (37/0) [22/2]

Size of the tree : 155


REPTree
============

Att341 < 21.03
|   Att106 < 62.15
|   |   Att219 < 80.5
|   |   |   Att995 < 343
|   |   |   |   Att3 < 5206.5 : 2 (231.53/5) [118/9]
|   |   |   |   Att3 >= 5206.5
|   |   |   |   |   Att572 < 701.5 : 1 (10/2) [3/1]
|   |   |   |   |   Att572 >= 701.5 : 2 (13.47/0) [6/1]
|   |   |   Att995 >= 343
|   |   |   |   Att486 < 1.07
|   |   |   |   |   Att317 < 0.54
|   |   |   |   |   |   Att17 < 740 : 2 (9.14/1) [5.46/1]
|   |   |   |   |   |   Att17 >= 740 : 1 (6/0) [7/1]
|   |   |   |   |   Att317 >= 0.54 : 2 (91.33/1) [37/0]
|   |   |   |   Att486 >= 1.07
|   |   |   |   |   Att1600 < 544.56
|   |   |   |   |   |   Att73 < 667.58 : 2 (39/0) [19/2]
|   |   |   |   |   |   Att73 >= 667.58 : 1 (2/0) [2/0]
|   |   |   |   |   Att1600 >= 544.56
|   |   |   |   |   |   Att1520 < 2082.02
|   |   |   |   |   |   |   Att766 < 26.5 : 1 (45/4) [20.54/5.54]
|   |   |   |   |   |   |   Att766 >= 26.5
|   |   |   |   |   |   |   |   Att557 < 331.1 : 1 (8/1) [1/0]
|   |   |   |   |   |   |   |   Att557 >= 331.1 : 2 (16/0) [4/1]
|   |   |   |   |   |   Att1520 >= 2082.02 : 2 (14/0) [1/0]
|   |   Att219 >= 80.5
|   |   |   Att63 < 4246.95
|   |   |   |   Att24 < 1206.56 : 2 (531.53/1) [276.46/6.46]
|   |   |   |   Att24 >= 1206.56
|   |   |   |   |   Att178 < 672.91 : 2 (9/0) [4/0]
|   |   |   |   |   Att178 >= 672.91 : 1 (3/0) [2/0]
|   |   |   Att63 >= 4246.95 : 1 (3/0) [0/0]
|   Att106 >= 62.15
|   |   Att349 < -8.19
|   |   |   Att449 < 14.96
|   |   |   |   Att1845 < 848.08
|   |   |   |   |   Att890 < 993
|   |   |   |   |   |   Att861 < 3.95 : 1 (6.55/2) [8.11/3]
|   |   |   |   |   |   Att861 >= 3.95 : 2 (15/0) [10/0]
|   |   |   |   |   Att890 >= 993
|   |   |   |   |   |   Att11 < 2595.5 : 1 (15.45/0) [9.89/1]
|   |   |   |   |   |   Att11 >= 2595.5 : 2 (2/0) [1/0]
|   |   |   |   Att1845 >= 848.08 : 1 (55.46/2) [29/8]
|   |   |   Att449 >= 14.96 : 2 (42/6) [17/0]
|   |   Att349 >= -8.19
|   |   |   Att208 < 3242
|   |   |   |   Att262 < 4.32 : 2 (88.93/0) [45/3]
|   |   |   |   Att262 >= 4.32
|   |   |   |   |   Att85 < 117.48 : 2 (13/0) [6/2]
|   |   |   |   |   Att85 >= 117.48 : 1 (5/0) [2/0]
|   |   |   Att208 >= 3242 : 1 (4.07/0.07) [1/0]
Att341 >= 21.03
|   Att1832 < 2
|   |   Att1206 < 0.04
|   |   |   Att1149 < 24.5
|   |   |   |   Att1769 < 241 : 2 (62/1) [24/6]
|   |   |   |   Att1769 >= 241
|   |   |   |   |   Att2 < 9.5 : 1 (6/0) [7/2]
|   |   |   |   |   Att2 >= 9.5 : 2 (5/0) [1/0]
|   |   |   Att1149 >= 24.5
|   |   |   |   Att686 < 154
|   |   |   |   |   Att1224 < 12.25
|   |   |   |   |   |   Att1636 < 12.52
|   |   |   |   |   |   |   Att37 < 2.5 : 1 (12/0) [1/0]
|   |   |   |   |   |   |   Att37 >= 2.5 : 2 (2/0) [1/0]
|   |   |   |   |   |   Att1636 >= 12.52
|   |   |   |   |   |   |   Att1810 < 119.5 : 2 (59/2) [26/3]
|   |   |   |   |   |   |   Att1810 >= 119.5
|   |   |   |   |   |   |   |   Att673 < 50.5 : 2 (7/0) [3/0]
|   |   |   |   |   |   |   |   Att673 >= 50.5 : 1 (16/2) [9/4]
|   |   |   |   |   Att1224 >= 12.25
|   |   |   |   |   |   Att815 < 16.01
|   |   |   |   |   |   |   Att1470 < 837.5 : 1 (22/0) [6/2]
|   |   |   |   |   |   |   Att1470 >= 837.5
|   |   |   |   |   |   |   |   Att934 < 46.5 : 1 (13/0) [3/0]
|   |   |   |   |   |   |   |   Att934 >= 46.5
|   |   |   |   |   |   |   |   |   Att494 < 466
|   |   |   |   |   |   |   |   |   |   Att20 < 374
|   |   |   |   |   |   |   |   |   |   |   Att151 < 14.5 : 1 (2/0) [4/1]
|   |   |   |   |   |   |   |   |   |   |   Att151 >= 14.5 : 2 (14/0) [8/2]
|   |   |   |   |   |   |   |   |   |   Att20 >= 374
|   |   |   |   |   |   |   |   |   |   |   Att231 < 1125 : 1 (12/0) [7/1]
|   |   |   |   |   |   |   |   |   |   |   Att231 >= 1125 : 2 (4/1) [2/0]
|   |   |   |   |   |   |   |   |   Att494 >= 466 : 2 (18/0) [7/0]
|   |   |   |   |   |   Att815 >= 16.01 : 1 (62/4) [27/0]
|   |   |   |   Att686 >= 154 : 2 (38/1) [20/5]
|   |   Att1206 >= 0.04
|   |   |   Att402 < 77.6
|   |   |   |   Att1743 < 4.99
|   |   |   |   |   Att1251 < 0.01
|   |   |   |   |   |   Att1519 < 58.97 : 2 (12/0) [5/1]
|   |   |   |   |   |   Att1519 >= 58.97
|   |   |   |   |   |   |   Att1143 < 16.9
|   |   |   |   |   |   |   |   Att1140 < 166
|   |   |   |   |   |   |   |   |   Att863 < 145.5 : 1 (68/0) [23/5]
|   |   |   |   |   |   |   |   |   Att863 >= 145.5
|   |   |   |   |   |   |   |   |   |   Att13 < 269.5 : 2 (3/0) [1/0]
|   |   |   |   |   |   |   |   |   |   Att13 >= 269.5 : 1 (4/0) [3/1]
|   |   |   |   |   |   |   |   Att1140 >= 166 : 2 (7/1) [2/0]
|   |   |   |   |   |   |   Att1143 >= 16.9
|   |   |   |   |   |   |   |   Att1146 < 770 : 1 (16/4) [7/0]
|   |   |   |   |   |   |   |   Att1146 >= 770 : 2 (15/0) [5/1]
|   |   |   |   |   Att1251 >= 0.01
|   |   |   |   |   |   Att1674 < 15.01
|   |   |   |   |   |   |   Att715 < 1318 : 2 (10/0) [4/1]
|   |   |   |   |   |   |   Att715 >= 1318 : 1 (4/0) [1/0]
|   |   |   |   |   |   Att1674 >= 15.01
|   |   |   |   |   |   |   Att865 < 3.5 : 2 (6/1) [9/5]
|   |   |   |   |   |   |   Att865 >= 3.5
|   |   |   |   |   |   |   |   Att320 < 2737.35 : 1 (369.54/6) [191.54/14]
|   |   |   |   |   |   |   |   Att320 >= 2737.35 : 2 (4/0) [2/0]
|   |   |   |   Att1743 >= 4.99
|   |   |   |   |   Att1804 < 16.69
|   |   |   |   |   |   Att789 < 5.5
|   |   |   |   |   |   |   Att98 < 3977 : 1 (17/0) [6/2]
|   |   |   |   |   |   |   Att98 >= 3977 : 2 (3/0) [2/0]
|   |   |   |   |   |   Att789 >= 5.5 : 2 (7/0) [4/0]
|   |   |   |   |   Att1804 >= 16.69 : 2 (19/0) [8/3]
|   |   |   Att402 >= 77.6
|   |   |   |   Att138 < 2.56
|   |   |   |   |   Att454 < 51.5
|   |   |   |   |   |   Att1042 < 11 : 2 (10/0) [6/0]
|   |   |   |   |   |   Att1042 >= 11 : 1 (31/1) [20/5]
|   |   |   |   |   Att454 >= 51.5
|   |   |   |   |   |   Att32 < 1206 : 2 (22/0) [14/4]
|   |   |   |   |   |   Att32 >= 1206 : 1 (3/0) [1/0]
|   |   |   |   Att138 >= 2.56 : 2 (40/1) [17/0]
|   Att1832 >= 2
|   |   Att1122 < 221
|   |   |   Att1716 < 180.2
|   |   |   |   Att1042 < 15.14 : 2 (111/5) [67.82/4]
|   |   |   |   Att1042 >= 15.14
|   |   |   |   |   Att949 < 3632.5
|   |   |   |   |   |   Att1068 < 544.5 : 2 (48/1) [32.53/2]
|   |   |   |   |   |   Att1068 >= 544.5
|   |   |   |   |   |   |   Att603 < 409.18 : 1 (8/0) [1/0]
|   |   |   |   |   |   |   Att603 >= 409.18 : 2 (39/8) [33/6]
|   |   |   |   |   Att949 >= 3632.5 : 1 (12/1) [6/2]
|   |   |   Att1716 >= 180.2
|   |   |   |   Att200 < 179.27
|   |   |   |   |   Att1148 < 1387 : 1 (138/51) [59.47/17.47]
|   |   |   |   |   Att1148 >= 1387 : 2 (22/0) [10/1]
|   |   |   |   Att200 >= 179.27 : 2 (30/0) [20/2]
|   |   Att1122 >= 221 : 2 (88/0) [47.18/4]

Size of the tree : 145


REPTree
============

Att341 < 21.03
|   Att913 < 18.15
|   |   Att1788 < 54.92
|   |   |   Att1140 < 122.5
|   |   |   |   Att1130 < 2716
|   |   |   |   |   Att63 < 81.91
|   |   |   |   |   |   Att1 < 65.5 : 2 (2/0) [5/1]
|   |   |   |   |   |   Att1 >= 65.5 : 1 (2/0) [3/1]
|   |   |   |   |   Att63 >= 81.91 : 2 (193.51/0) [89.32/4]
|   |   |   |   Att1130 >= 2716 : 1 (4/1) [0/0]
|   |   |   Att1140 >= 122.5
|   |   |   |   Att1696 < 344.5
|   |   |   |   |   Att262 < 2.44 : 2 (42/0) [12/1]
|   |   |   |   |   Att262 >= 2.44
|   |   |   |   |   |   Att518 < 472.16 : 2 (76.18/18.87) [46.81/11]
|   |   |   |   |   |   Att518 >= 472.16
|   |   |   |   |   |   |   Att412 < 1759 : 2 (3.19/0) [6/0]
|   |   |   |   |   |   |   Att412 >= 1759 : 1 (15/0) [9.19/3.19]
|   |   |   |   Att1696 >= 344.5 : 2 (64/0) [29/0]
|   |   Att1788 >= 54.92
|   |   |   Att787 < 188 : 2 (373/0) [191/3]
|   |   |   Att787 >= 188
|   |   |   |   Att142 < 5.19 : 2 (17.99/0) [6.99/0]
|   |   |   |   Att142 >= 5.19 : 1 (2/0) [5/0]
|   Att913 >= 18.15
|   |   Att1221 < 281.33
|   |   |   Att1800 < 152.5 : 2 (107/0) [57.69/0]
|   |   |   Att1800 >= 152.5
|   |   |   |   Att1512 < 65.54 : 1 (12/0) [2/1]
|   |   |   |   Att1512 >= 65.54
|   |   |   |   |   Att25 < 93.5
|   |   |   |   |   |   Att23 < 1487
|   |   |   |   |   |   |   Att697 < 2024.5 : 2 (97.73/0) [53/3]
|   |   |   |   |   |   |   Att697 >= 2024.5
|   |   |   |   |   |   |   |   Att21 < 238.5 : 2 (6/0) [5/0]
|   |   |   |   |   |   |   |   Att21 >= 238.5 : 1 (3/0) [3/1]
|   |   |   |   |   |   Att23 >= 1487 : 1 (3/0) [0/0]
|   |   |   |   |   Att25 >= 93.5
|   |   |   |   |   |   Att1801 < 1.79
|   |   |   |   |   |   |   Att1521 < 0.01 : 2 (15/1) [1/0]
|   |   |   |   |   |   |   Att1521 >= 0.01
|   |   |   |   |   |   |   |   Att916 < 7.23
|   |   |   |   |   |   |   |   |   Att226 < 14.17 : 2 (4/1) [3/0]
|   |   |   |   |   |   |   |   |   Att226 >= 14.17 : 1 (30/0) [17/3]
|   |   |   |   |   |   |   |   Att916 >= 7.23
|   |   |   |   |   |   |   |   |   Att63 < 582.62 : 1 (2/0) [4/0]
|   |   |   |   |   |   |   |   |   Att63 >= 582.62 : 2 (10/0) [3/1]
|   |   |   |   |   |   Att1801 >= 1.79 : 2 (19/0) [11/3]
|   |   Att1221 >= 281.33
|   |   |   Att980 < 69.02 : 2 (42/13) [25/6]
|   |   |   Att980 >= 69.02
|   |   |   |   Att1309 < 18.5
|   |   |   |   |   Att801 < 543.5 : 2 (2/0) [2/0]
|   |   |   |   |   Att801 >= 543.5 : 1 (64.58/0.27) [30.87/9.44]
|   |   |   |   Att1309 >= 18.5 : 2 (6/0) [1/0]
Att341 >= 21.03
|   Att1832 < 1.96
|   |   Att1716 < 135.11
|   |   |   Att131 < 332
|   |   |   |   Att1588 < 0.5 : 2 (11/0) [4/0]
|   |   |   |   Att1588 >= 0.5
|   |   |   |   |   Att754 < 2.95 : 1 (54/1) [18/3]
|   |   |   |   |   Att754 >= 2.95 : 2 (10/3) [4/1]
|   |   |   Att131 >= 332
|   |   |   |   Att1859 < 196.5
|   |   |   |   |   Att1257 < 0.23
|   |   |   |   |   |   Att1470 < 3092.5 : 2 (63/3) [40/9]
|   |   |   |   |   |   Att1470 >= 3092.5
|   |   |   |   |   |   |   Att15 < 17.5 : 1 (4/0) [3/1]
|   |   |   |   |   |   |   Att15 >= 17.5 : 2 (2/0) [3/0]
|   |   |   |   |   Att1257 >= 0.23
|   |   |   |   |   |   Att341 < 26.09
|   |   |   |   |   |   |   Att949 < 3067 : 2 (31.82/2) [11/3]
|   |   |   |   |   |   |   Att949 >= 3067 : 1 (7.18/0.18) [3/0]
|   |   |   |   |   |   Att341 >= 26.09
|   |   |   |   |   |   |   Att1143 < 16.9 : 1 (24/0) [12/2]
|   |   |   |   |   |   |   Att1143 >= 16.9
|   |   |   |   |   |   |   |   Att91 < 722.5 : 1 (8/1) [1/0]
|   |   |   |   |   |   |   |   Att91 >= 722.5 : 2 (8/0) [4/1]
|   |   |   |   Att1859 >= 196.5 : 2 (82/1) [28/3]
|   |   Att1716 >= 135.11
|   |   |   Att1042 < 16.01
|   |   |   |   Att1215 < 130.16
|   |   |   |   |   Att150 < 24.11
|   |   |   |   |   |   Att121 < 470.5
|   |   |   |   |   |   |   Att458 < 4.34 : 2 (34/0) [14/3]
|   |   |   |   |   |   |   Att458 >= 4.34 : 1 (5/2) [3/0]
|   |   |   |   |   |   Att121 >= 470.5 : 1 (6/0) [6/3]
|   |   |   |   |   Att150 >= 24.11
|   |   |   |   |   |   Att329 < 15.16
|   |   |   |   |   |   |   Att187 < 28
|   |   |   |   |   |   |   |   Att498 < 10971.5 : 1 (13/0) [7/3]
|   |   |   |   |   |   |   |   Att498 >= 10971.5 : 2 (4/0) [1/0]
|   |   |   |   |   |   |   Att187 >= 28 : 2 (20.79/0) [11.79/2]
|   |   |   |   |   |   Att329 >= 15.16
|   |   |   |   |   |   |   Att1740 < 5.99
|   |   |   |   |   |   |   |   Att180 < 2.03
|   |   |   |   |   |   |   |   |   Att468 < 400 : 1 (28/0) [13/1]
|   |   |   |   |   |   |   |   |   Att468 >= 400
|   |   |   |   |   |   |   |   |   |   Att1055 < 126
|   |   |   |   |   |   |   |   |   |   |   Att92 < 1052.5 : 1 (12/0) [8/1]
|   |   |   |   |   |   |   |   |   |   |   Att92 >= 1052.5 : 2 (2/0) [1/0]
|   |   |   |   |   |   |   |   |   |   Att1055 >= 126 : 2 (10/0) [11/3]
|   |   |   |   |   |   |   |   Att180 >= 2.03 : 1 (96/1) [45/2]
|   |   |   |   |   |   |   Att1740 >= 5.99
|   |   |   |   |   |   |   |   Att458 < 3.04 : 2 (11/0) [4/0]
|   |   |   |   |   |   |   |   Att458 >= 3.04 : 1 (7/1) [6/1]
|   |   |   |   Att1215 >= 130.16
|   |   |   |   |   Att1616 < 15.64
|   |   |   |   |   |   Att460 < 636 : 1 (11/0) [3/0]
|   |   |   |   |   |   Att460 >= 636 : 2 (9/0) [6/1]
|   |   |   |   |   Att1616 >= 15.64 : 2 (46.21/0) [21.21/4]
|   |   |   Att1042 >= 16.01
|   |   |   |   Att861 < 2.01
|   |   |   |   |   Att582 < 49.97 : 2 (14/0) [7/4]
|   |   |   |   |   Att582 >= 49.97
|   |   |   |   |   |   Att428 < 380 : 2 (13/2) [7/2]
|   |   |   |   |   |   Att428 >= 380 : 1 (35/2) [13/2]
|   |   |   |   Att861 >= 2.01
|   |   |   |   |   Att1578 < 897.35 : 1 (344.13/17) [180.56/22]
|   |   |   |   |   Att1578 >= 897.35
|   |   |   |   |   |   Att909 < 1139 : 2 (9/0) [5/0]
|   |   |   |   |   |   Att909 >= 1139 : 1 (4/0) [3/1]
|   Att1832 >= 1.96
|   |   Att1716 < 230.5
|   |   |   Att106 < 15.5
|   |   |   |   Att828 < 602.5
|   |   |   |   |   Att1188 < 2112.5 : 2 (162/2) [71/0]
|   |   |   |   |   Att1188 >= 2112.5 : 1 (2/0) [2/0]
|   |   |   |   Att828 >= 602.5 : 2 (66/14) [39/9]
|   |   |   Att106 >= 15.5
|   |   |   |   Att108 < 193
|   |   |   |   |   Att319 < 309.5 : 2 (27.85/0) [23.35/2]
|   |   |   |   |   Att319 >= 309.5
|   |   |   |   |   |   Att1027 < 16.98
|   |   |   |   |   |   |   Att863 < 115.42
|   |   |   |   |   |   |   |   Att1315 < 480.5
|   |   |   |   |   |   |   |   |   Att1528 < 15.05 : 2 (10/4) [13/2]
|   |   |   |   |   |   |   |   |   Att1528 >= 15.05 : 1 (36.49/0) [15/6]
|   |   |   |   |   |   |   |   Att1315 >= 480.5 : 2 (5.2/0.2) [4/1]
|   |   |   |   |   |   |   Att863 >= 115.42
|   |   |   |   |   |   |   |   Att867 < 16.17
|   |   |   |   |   |   |   |   |   Att1705 < 3.5 : 2 (29/0) [13/3]
|   |   |   |   |   |   |   |   |   Att1705 >= 3.5
|   |   |   |   |   |   |   |   |   |   Att144 < 385.5 : 1 (5/0) [2/0]
|   |   |   |   |   |   |   |   |   |   Att144 >= 385.5 : 2 (3/0) [2/0]
|   |   |   |   |   |   |   |   Att867 >= 16.17
|   |   |   |   |   |   |   |   |   Att444 < 753 : 1 (15/0) [4/1]
|   |   |   |   |   |   |   |   |   Att444 >= 753 : 2 (7/1) [7/3]
|   |   |   |   |   |   Att1027 >= 16.98 : 2 (21.83/1) [11.22/2]
|   |   |   |   Att108 >= 193 : 2 (65/2) [18/3]
|   |   Att1716 >= 230.5
|   |   |   Att139 < 749.5
|   |   |   |   Att1825 < 333.5 : 2 (24.32/1) [18/5]
|   |   |   |   Att1825 >= 333.5 : 1 (29/10) [14/3]
|   |   |   Att139 >= 749.5
|   |   |   |   Att33 < 148 : 1 (32/0) [13/2]
|   |   |   |   Att33 >= 148 : 2 (2/0) [1/0]

Size of the tree : 159


REPTree
============

Att1161 < 157.05
|   Att1213 < 28.01
|   |   Att1107 < 2452.5 : 2 (401.75/1) [189.96/3]
|   |   Att1107 >= 2452.5
|   |   |   Att518 < 564.09 : 2 (329/22) [192.48/18]
|   |   |   Att518 >= 564.09
|   |   |   |   Att175 < 293.84 : 1 (17/0) [10/4]
|   |   |   |   Att175 >= 293.84 : 2 (27/7) [8/0]
|   Att1213 >= 28.01
|   |   Att913 < 17.01
|   |   |   Att1464 < 2904.3 : 2 (355.25/22) [146.56/12]
|   |   |   Att1464 >= 2904.3
|   |   |   |   Att458 < 3.04 : 2 (55/6) [21/2]
|   |   |   |   Att458 >= 3.04
|   |   |   |   |   Att1305 < 74 : 1 (39/2) [20/1]
|   |   |   |   |   Att1305 >= 74 : 2 (17/3) [11/1]
|   |   Att913 >= 17.01
|   |   |   Att673 < 84.5
|   |   |   |   Att155 < 76.5 : 1 (10/0) [4/2]
|   |   |   |   Att155 >= 76.5
|   |   |   |   |   Att338 < 2863.5
|   |   |   |   |   |   Att1602 < 1003 : 2 (131/3) [64/4]
|   |   |   |   |   |   Att1602 >= 1003
|   |   |   |   |   |   |   Att55 < 1104.5 : 2 (3/0) [1/0]
|   |   |   |   |   |   |   Att55 >= 1104.5 : 1 (4/0) [1/0]
|   |   |   |   |   Att338 >= 2863.5 : 1 (3/0) [0/0]
|   |   |   Att673 >= 84.5
|   |   |   |   Att7 < 557.88
|   |   |   |   |   Att1402 < 1428.52
|   |   |   |   |   |   Att536 < 0.12
|   |   |   |   |   |   |   Att407 < 1300.5 : 2 (20.82/2) [11/1]
|   |   |   |   |   |   |   Att407 >= 1300.5 : 1 (4/0) [2/0]
|   |   |   |   |   |   Att536 >= 0.12
|   |   |   |   |   |   |   Att200 < 184.5
|   |   |   |   |   |   |   |   Att1251 < 0.01
|   |   |   |   |   |   |   |   |   Att1286 < 190.5
|   |   |   |   |   |   |   |   |   |   Att16 < 792 : 2 (14/2) [7/1]
|   |   |   |   |   |   |   |   |   |   Att16 >= 792 : 1 (7/0) [1/0]
|   |   |   |   |   |   |   |   |   Att1286 >= 190.5 : 1 (22/1) [10/2]
|   |   |   |   |   |   |   |   Att1251 >= 0.01
|   |   |   |   |   |   |   |   |   Att47 < 74.84 : 1 (120.94/0) [61.94/2]
|   |   |   |   |   |   |   |   |   Att47 >= 74.84
|   |   |   |   |   |   |   |   |   |   Att56 < 15.85 : 1 (7/0) [1/0]
|   |   |   |   |   |   |   |   |   |   Att56 >= 15.85 : 2 (4.63/0) [2.63/0]
|   |   |   |   |   |   |   Att200 >= 184.5 : 2 (5.63/0) [3.63/0]
|   |   |   |   |   Att1402 >= 1428.52 : 2 (13.24/0.06) [13.06/5.06]
|   |   |   |   Att7 >= 557.88
|   |   |   |   |   Att1328 < 1.98
|   |   |   |   |   |   Att454 < 59 : 1 (36/2) [20/6]
|   |   |   |   |   |   Att454 >= 59 : 2 (7/0) [3/0]
|   |   |   |   |   Att1328 >= 1.98
|   |   |   |   |   |   Att572 < 1177.5
|   |   |   |   |   |   |   Att1766 < 16.16 : 2 (69/0) [22/1]
|   |   |   |   |   |   |   Att1766 >= 16.16
|   |   |   |   |   |   |   |   Att1487 < 813.9 : 2 (26/0) [10/0]
|   |   |   |   |   |   |   |   Att1487 >= 813.9
|   |   |   |   |   |   |   |   |   Att3 < 17.5 : 2 (3/0) [3/0]
|   |   |   |   |   |   |   |   |   Att3 >= 17.5 : 1 (10/0) [5/1]
|   |   |   |   |   |   Att572 >= 1177.5 : 1 (6/0) [2/0]
Att1161 >= 157.05
|   Att313 < 1.07
|   |   Att170 < 162.5
|   |   |   Att920 < 2234
|   |   |   |   Att872 < 433.5 : 2 (7/0) [3/0]
|   |   |   |   Att872 >= 433.5 : 1 (40/3) [19/3]
|   |   |   Att920 >= 2234 : 2 (16/1) [8/3]
|   |   Att170 >= 162.5
|   |   |   Att913 < 17.5 : 2 (86/1) [50/0]
|   |   |   Att913 >= 17.5
|   |   |   |   Att1740 < 3.75
|   |   |   |   |   Att480 < 772.86
|   |   |   |   |   |   Att1143 < 15.25 : 2 (21/0) [8/1]
|   |   |   |   |   |   Att1143 >= 15.25
|   |   |   |   |   |   |   Att1001 < 18.5
|   |   |   |   |   |   |   |   Att1340 < 1068 : 2 (7/0) [7/1]
|   |   |   |   |   |   |   |   Att1340 >= 1068 : 1 (17/0) [19/4]
|   |   |   |   |   |   |   Att1001 >= 18.5 : 2 (9/0) [4/0]
|   |   |   |   |   Att480 >= 772.86 : 1 (12/0) [4/1]
|   |   |   |   Att1740 >= 3.75 : 2 (33/0) [17/1]
|   Att313 >= 1.07
|   |   Att840 < 15.01
|   |   |   Att1335 < 134.5 : 1 (9/0) [9/1]
|   |   |   Att1335 >= 134.5 : 2 (54/0) [30/6]
|   |   Att840 >= 15.01
|   |   |   Att632 < 1.01
|   |   |   |   Att250 < 231.31 : 1 (16/0) [7/1]
|   |   |   |   Att250 >= 231.31
|   |   |   |   |   Att1107 < 2203.5 : 2 (42/3) [20/4]
|   |   |   |   |   Att1107 >= 2203.5
|   |   |   |   |   |   Att262 < 5.56
|   |   |   |   |   |   |   Att378 < 1052.5
|   |   |   |   |   |   |   |   Att766 < 51.5
|   |   |   |   |   |   |   |   |   Att803 < 157 : 1 (34/1) [20.17/5.17]
|   |   |   |   |   |   |   |   |   Att803 >= 157 : 2 (3.37/0) [0.37/0]
|   |   |   |   |   |   |   |   Att766 >= 51.5 : 2 (6/0) [1/0]
|   |   |   |   |   |   |   Att378 >= 1052.5 : 2 (9/0) [2/0]
|   |   |   |   |   |   Att262 >= 5.56 : 2 (13/0) [3/2]
|   |   |   Att632 >= 1.01
|   |   |   |   Att1887 < 286.46
|   |   |   |   |   Att435 < 336.5
|   |   |   |   |   |   Att4 < 154 : 1 (4/0) [5/1]
|   |   |   |   |   |   Att4 >= 154 : 2 (2/0) [1/0]
|   |   |   |   |   Att435 >= 336.5 : 2 (23/0) [19/1]
|   |   |   |   Att1887 >= 286.46
|   |   |   |   |   Att1869 < 169.77
|   |   |   |   |   |   Att628 < 35.5
|   |   |   |   |   |   |   Att518 < 335.21
|   |   |   |   |   |   |   |   Att808 < 2154.89 : 2 (24/1) [20/8]
|   |   |   |   |   |   |   |   Att808 >= 2154.89 : 1 (5/1) [2.83/0.83]
|   |   |   |   |   |   |   Att518 >= 335.21
|   |   |   |   |   |   |   |   Att640 < 284 : 1 (51.33/1) [21/3]
|   |   |   |   |   |   |   |   Att640 >= 284 : 2 (6/0) [3/0]
|   |   |   |   |   |   Att628 >= 35.5
|   |   |   |   |   |   |   Att760 < 3319
|   |   |   |   |   |   |   |   Att1617 < 3.71
|   |   |   |   |   |   |   |   |   Att526 < 230.94 : 1 (260.3/0) [112/7]
|   |   |   |   |   |   |   |   |   Att526 >= 230.94
|   |   |   |   |   |   |   |   |   |   Att754 < 1.03
|   |   |   |   |   |   |   |   |   |   |   Att418 < 0.08
|   |   |   |   |   |   |   |   |   |   |   |   Att240 < 16.81 : 1 (11/0) [4/0]
|   |   |   |   |   |   |   |   |   |   |   |   Att240 >= 16.81 : 2 (2/0) [1/0]
|   |   |   |   |   |   |   |   |   |   |   Att418 >= 0.08 : 2 (8/0) [11/5]
|   |   |   |   |   |   |   |   |   |   Att754 >= 1.03
|   |   |   |   |   |   |   |   |   |   |   Att978 < 1178 : 1 (118.29/0) [66/9]
|   |   |   |   |   |   |   |   |   |   |   Att978 >= 1178
|   |   |   |   |   |   |   |   |   |   |   |   Att254 < 24 : 1 (9/0) [6/1]
|   |   |   |   |   |   |   |   |   |   |   |   Att254 >= 24 : 2 (5/0) [7/3]
|   |   |   |   |   |   |   |   Att1617 >= 3.71
|   |   |   |   |   |   |   |   |   Att456 < 977.99 : 2 (9/0) [6/2]
|   |   |   |   |   |   |   |   |   Att456 >= 977.99 : 1 (6/0) [5/2]
|   |   |   |   |   |   |   Att760 >= 3319 : 2 (6/0) [3/1]
|   |   |   |   |   Att1869 >= 169.77
|   |   |   |   |   |   Att1862 < 836.5
|   |   |   |   |   |   |   Att23 < 219
|   |   |   |   |   |   |   |   Att608 < 198 : 2 (4.37/1) [5.37/0]
|   |   |   |   |   |   |   |   Att608 >= 198 : 1 (15.08/0) [11/4]
|   |   |   |   |   |   |   Att23 >= 219 : 2 (8/0) [5/2]
|   |   |   |   |   |   Att1862 >= 836.5 : 2 (20/0) [7/2]

Size of the tree : 139


REPTree
============

Att341 < 20.1
|   Att913 < 19.01
|   |   Att518 < 874.81
|   |   |   Att595 < 1301.29
|   |   |   |   Att277 < 1992.36
|   |   |   |   |   Att467 < 126
|   |   |   |   |   |   Att699 < 1260.29 : 2 (196.06/2.43) [106.69/6.43]
|   |   |   |   |   |   Att699 >= 1260.29
|   |   |   |   |   |   |   Att376 < 2.76 : 1 (7/1) [4/1]
|   |   |   |   |   |   |   Att376 >= 2.76 : 2 (26.22/0) [22/0]
|   |   |   |   |   Att467 >= 126 : 2 (450.19/0) [236.51/2]
|   |   |   |   Att277 >= 1992.36 : 1 (4/0) [3/2]
|   |   |   Att595 >= 1301.29
|   |   |   |   Att1716 < 186.56
|   |   |   |   |   Att556 < 41 : 1 (6/0) [0/0]
|   |   |   |   |   Att556 >= 41
|   |   |   |   |   |   Att1604 < 476.5
|   |   |   |   |   |   |   Att201 < 622 : 1 (4/0) [1/0]
|   |   |   |   |   |   |   Att201 >= 622 : 2 (12/0) [3/0]
|   |   |   |   |   |   Att1604 >= 476.5 : 2 (90/0) [38/0]
|   |   |   |   Att1716 >= 186.56 : 1 (15/5) [5/1]
|   |   Att518 >= 874.81
|   |   |   Att1082 < 176.65
|   |   |   |   Att87 < 637.04 : 2 (3.15/0) [2.22/0]
|   |   |   |   Att87 >= 637.04 : 1 (20/0) [4/1]
|   |   |   Att1082 >= 176.65 : 2 (42/3) [22/4]
|   Att913 >= 19.01
|   |   Att25 < 70.2
|   |   |   Att609 < 32.59 : 1 (6/0) [2/0]
|   |   |   Att609 >= 32.59 : 2 (156/10) [60/9]
|   |   Att25 >= 70.2
|   |   |   Att1213 < 25.5 : 2 (25/0) [11/1]
|   |   |   Att1213 >= 25.5
|   |   |   |   Att1601 < 177
|   |   |   |   |   Att596 < 58
|   |   |   |   |   |   Att4 < 112.5 : 1 (4/0) [3/1]
|   |   |   |   |   |   Att4 >= 112.5 : 2 (12/0) [10/0]
|   |   |   |   |   Att596 >= 58 : 1 (79.43/8) [42/12]
|   |   |   |   Att1601 >= 177
|   |   |   |   |   Att410 < 540 : 2 (26.24/0) [15/0]
|   |   |   |   |   Att410 >= 540
|   |   |   |   |   |   Att439 < 684.5 : 1 (10/0) [8/1]
|   |   |   |   |   |   Att439 >= 684.5 : 2 (5/0) [4/0]
Att341 >= 20.1
|   Att1832 < 1.96
|   |   Att180 < 1.01
|   |   |   Att1449 < 381.5
|   |   |   |   Att1844 < 61.5
|   |   |   |   |   Att179 < 196.5 : 1 (15/0) [3/1]
|   |   |   |   |   Att179 >= 196.5
|   |   |   |   |   |   Att1729 < 3.33 : 2 (29/1) [12/6]
|   |   |   |   |   |   Att1729 >= 3.33
|   |   |   |   |   |   |   Att176 < 1658
|   |   |   |   |   |   |   |   Att1007 < 1505.45
|   |   |   |   |   |   |   |   |   Att252 < 74.5
|   |   |   |   |   |   |   |   |   |   Att1 < 896.5 : 1 (7/0) [10/3]
|   |   |   |   |   |   |   |   |   |   Att1 >= 896.5 : 2 (4/0) [3/0]
|   |   |   |   |   |   |   |   |   Att252 >= 74.5 : 2 (28/0) [9/1]
|   |   |   |   |   |   |   |   Att1007 >= 1505.45
|   |   |   |   |   |   |   |   |   Att5 < 851.22 : 1 (25/1) [11/1]
|   |   |   |   |   |   |   |   |   Att5 >= 851.22 : 2 (5/0) [3/0]
|   |   |   |   |   |   |   Att176 >= 1658 : 1 (21/0) [9/1]
|   |   |   |   Att1844 >= 61.5
|   |   |   |   |   Att620 < 12776.5
|   |   |   |   |   |   Att855 < 3.5
|   |   |   |   |   |   |   Att607 < 82.36 : 2 (25/1) [11/2]
|   |   |   |   |   |   |   Att607 >= 82.36 : 1 (17/7) [8/2]
|   |   |   |   |   |   Att855 >= 3.5 : 2 (44/0) [22/7]
|   |   |   |   |   Att620 >= 12776.5 : 1 (5/0) [4/0]
|   |   |   Att1449 >= 381.5 : 2 (47/0) [23/3]
|   |   Att180 >= 1.01
|   |   |   Att922 < 177.59
|   |   |   |   Att1611 < 0.02
|   |   |   |   |   Att1291 < 3849.5
|   |   |   |   |   |   Att116 < 27.5 : 1 (2/0) [3/1]
|   |   |   |   |   |   Att116 >= 27.5 : 2 (37/1) [19/5]
|   |   |   |   |   Att1291 >= 3849.5 : 1 (14/3) [6/2]
|   |   |   |   Att1611 >= 0.02
|   |   |   |   |   Att1355 < 27.91
|   |   |   |   |   |   Att1573 < 372.5
|   |   |   |   |   |   |   Att833 < 52.5
|   |   |   |   |   |   |   |   Att242 < 0.5
|   |   |   |   |   |   |   |   |   Att63 < 690 : 1 (8/0) [3/0]
|   |   |   |   |   |   |   |   |   Att63 >= 690 : 2 (6/0) [1/0]
|   |   |   |   |   |   |   |   Att242 >= 0.5 : 1 (83/0) [19/3]
|   |   |   |   |   |   |   Att833 >= 52.5
|   |   |   |   |   |   |   |   Att775 < 120
|   |   |   |   |   |   |   |   |   Att1529 < 438.92
|   |   |   |   |   |   |   |   |   |   Att454 < 2.02
|   |   |   |   |   |   |   |   |   |   |   Att60 < 849.57 : 2 (12/0) [7/0]
|   |   |   |   |   |   |   |   |   |   |   Att60 >= 849.57 : 1 (6/1) [3/1]
|   |   |   |   |   |   |   |   |   |   Att454 >= 2.02 : 1 (20.37/0) [16/3]
|   |   |   |   |   |   |   |   |   Att1529 >= 438.92 : 2 (30/0) [11/3]
|   |   |   |   |   |   |   |   Att775 >= 120
|   |   |   |   |   |   |   |   |   Att1074 < 706.87 : 1 (33.64/0) [12.82/2]
|   |   |   |   |   |   |   |   |   Att1074 >= 706.87 : 2 (5/0) [3/1]
|   |   |   |   |   |   Att1573 >= 372.5 : 1 (342.2/12) [183/10]
|   |   |   |   |   Att1355 >= 27.91
|   |   |   |   |   |   Att633 < 541.84 : 1 (57.18/10) [25/4]
|   |   |   |   |   |   Att633 >= 541.84
|   |   |   |   |   |   |   Att1071 < 113.45
|   |   |   |   |   |   |   |   Att283 < 151.5 : 1 (3.18/0) [3.18/1]
|   |   |   |   |   |   |   |   Att283 >= 151.5 : 2 (39/1) [14/2]
|   |   |   |   |   |   |   Att1071 >= 113.45 : 1 (21/7) [20/6]
|   |   |   Att922 >= 177.59 : 2 (54/3) [32/5]
|   Att1832 >= 1.96
|   |   Att1832 < 3.99
|   |   |   Att1256 < 14.9
|   |   |   |   Att1508 < 14.02 : 2 (85.57/9) [46/4]
|   |   |   |   Att1508 >= 14.02
|   |   |   |   |   Att133 < 1476
|   |   |   |   |   |   Att1029 < 1038
|   |   |   |   |   |   |   Att1383 < 5.82
|   |   |   |   |   |   |   |   Att18 < 153
|   |   |   |   |   |   |   |   |   Att1159 < 5.57
|   |   |   |   |   |   |   |   |   |   Att1589 < 2.5 : 2 (6/1) [4/0]
|   |   |   |   |   |   |   |   |   |   Att1589 >= 2.5
|   |   |   |   |   |   |   |   |   |   |   Att811 < 15.06 : 2 (5/1) [1/0]
|   |   |   |   |   |   |   |   |   |   |   Att811 >= 15.06
|   |   |   |   |   |   |   |   |   |   |   |   Att1336 < 73.83
|   |   |   |   |   |   |   |   |   |   |   |   |   Att582 < 67 : 1 (8/0) [6/2]
|   |   |   |   |   |   |   |   |   |   |   |   |   Att582 >= 67 : 2 (4/0) [3/1]
|   |   |   |   |   |   |   |   |   |   |   |   Att1336 >= 73.83 : 1 (98/0) [40.9/11.9]
|   |   |   |   |   |   |   |   |   Att1159 >= 5.57 : 2 (6/0) [3/0]
|   |   |   |   |   |   |   |   Att18 >= 153 : 2 (10.57/0.57) [9.57/0.57]
|   |   |   |   |   |   |   Att1383 >= 5.82 : 2 (15/1) [12.1/2]
|   |   |   |   |   |   Att1029 >= 1038 : 2 (22/1) [8/2]
|   |   |   |   |   Att133 >= 1476 : 2 (20/0) [9/1]
|   |   |   Att1256 >= 14.9 : 2 (104/5) [41/4]
|   |   Att1832 >= 3.99
|   |   |   Att367 < 10209.5
|   |   |   |   Att581 < 3153.11
|   |   |   |   |   Att126 < 215 : 2 (156/0) [96/6]
|   |   |   |   |   Att126 >= 215
|   |   |   |   |   |   Att18 < 149.5 : 2 (6/0) [3/0]
|   |   |   |   |   |   Att18 >= 149.5 : 1 (2/0) [2/0]
|   |   |   |   Att581 >= 3153.11 : 1 (3/1) [0/0]
|   |   |   Att367 >= 10209.5 : 1 (4/1) [4/1]

Size of the tree : 139


REPTree
============

Att341 < 22
|   Att913 < 19.01
|   |   Att1894 < 85.83
|   |   |   Att1769 < 121
|   |   |   |   Att1267 < 16.26 : 2 (182.93/2) [94/4]
|   |   |   |   Att1267 >= 16.26
|   |   |   |   |   Att86 < 77.12
|   |   |   |   |   |   Att1093 < 783
|   |   |   |   |   |   |   Att394 < 19 : 2 (33/0) [15/1]
|   |   |   |   |   |   |   Att394 >= 19 : 1 (3/1) [6/2]
|   |   |   |   |   |   Att1093 >= 783
|   |   |   |   |   |   |   Att1508 < 16.6 : 1 (16/0) [7/2]
|   |   |   |   |   |   |   Att1508 >= 16.6 : 2 (8/0) [9/1]
|   |   |   |   |   Att86 >= 77.12 : 2 (60/0) [34/0]
|   |   |   Att1769 >= 121
|   |   |   |   Att283 < 159.5
|   |   |   |   |   Att861 < 2 : 2 (9.84/0) [5/0]
|   |   |   |   |   Att861 >= 2
|   |   |   |   |   |   Att148 < 39.31 : 1 (29/0) [16/5]
|   |   |   |   |   |   Att148 >= 39.31 : 2 (3/0) [2/0]
|   |   |   |   Att283 >= 159.5
|   |   |   |   |   Att579 < 15.99
|   |   |   |   |   |   Att857 < 16
|   |   |   |   |   |   |   Att21 < 911.01 : 1 (14/0) [7/3]
|   |   |   |   |   |   |   Att21 >= 911.01 : 2 (3/0) [5/2]
|   |   |   |   |   |   Att857 >= 16
|   |   |   |   |   |   |   Att176 < 1473.18 : 2 (14/0) [10/0]
|   |   |   |   |   |   |   Att176 >= 1473.18 : 1 (2/0) [2/0]
|   |   |   |   |   Att579 >= 15.99 : 2 (75.16/5) [35/2]
|   |   Att1894 >= 85.83 : 2 (517.79/6) [256/2]
|   Att913 >= 19.01
|   |   Att1670 < 0.86
|   |   |   Att673 < 89.26
|   |   |   |   Att277 < 2131.17
|   |   |   |   |   Att829 < 2445
|   |   |   |   |   |   Att581 < 392.07 : 2 (77/1) [41/2]
|   |   |   |   |   |   Att581 >= 392.07
|   |   |   |   |   |   |   Att155 < 461.5 : 2 (11/0) [12/5]
|   |   |   |   |   |   |   Att155 >= 461.5 : 1 (8/0) [4/0]
|   |   |   |   |   Att829 >= 2445 : 1 (4/0) [1/1]
|   |   |   |   Att277 >= 2131.17 : 1 (8/0) [2/1]
|   |   |   Att673 >= 89.26
|   |   |   |   Att1364 < 6
|   |   |   |   |   Att1641 < 781.13
|   |   |   |   |   |   Att398 < 842.23
|   |   |   |   |   |   |   Att293 < 0.02 : 2 (6.28/0) [7/0]
|   |   |   |   |   |   |   Att293 >= 0.02 : 1 (55/11) [32/10]
|   |   |   |   |   |   Att398 >= 842.23 : 2 (13.62/0) [6/3]
|   |   |   |   |   Att1641 >= 781.13 : 1 (48.56/1) [21.69/2]
|   |   |   |   Att1364 >= 6 : 2 (29.35/2) [8.96/0.96]
|   |   Att1670 >= 0.86
|   |   |   Att179 < 3120.5 : 2 (112/0) [31/0]
|   |   |   Att179 >= 3120.5 : 1 (2.92/0) [0.31/0]
Att341 >= 22
|   Att1042 < 14.05
|   |   Att191 < 236
|   |   |   Att1707 < 1.11 : 2 (65.31/1) [35/4]
|   |   |   Att1707 >= 1.11
|   |   |   |   Att938 < 296
|   |   |   |   |   Att506 < 279
|   |   |   |   |   |   Att236 < 565 : 2 (16.69/2) [7.21/0]
|   |   |   |   |   |   Att236 >= 565 : 1 (5/0) [1/0]
|   |   |   |   |   Att506 >= 279 : 2 (53/0) [23/3]
|   |   |   |   Att938 >= 296
|   |   |   |   |   Att128 < 0.97 : 1 (46.04/6.04) [22/4]
|   |   |   |   |   Att128 >= 0.97
|   |   |   |   |   |   Att1674 < 16.05
|   |   |   |   |   |   |   Att1307 < 1233.5
|   |   |   |   |   |   |   |   Att1834 < 938
|   |   |   |   |   |   |   |   |   Att1281 < 214
|   |   |   |   |   |   |   |   |   |   Att1409 < 340 : 2 (17/0) [4/3]
|   |   |   |   |   |   |   |   |   |   Att1409 >= 340
|   |   |   |   |   |   |   |   |   |   |   Att732 < 12.5 : 1 (11/0) [6/3]
|   |   |   |   |   |   |   |   |   |   |   Att732 >= 12.5
|   |   |   |   |   |   |   |   |   |   |   |   Att1046 < 129.5
|   |   |   |   |   |   |   |   |   |   |   |   |   Att492 < 2.5
|   |   |   |   |   |   |   |   |   |   |   |   |   |   Att2 < 82.5 : 1 (14/0) [5.79/2.79]
|   |   |   |   |   |   |   |   |   |   |   |   |   |   Att2 >= 82.5 : 2 (2/0) [1/0]
|   |   |   |   |   |   |   |   |   |   |   |   |   Att492 >= 2.5 : 2 (5/0) [7/0]
|   |   |   |   |   |   |   |   |   |   |   |   Att1046 >= 129.5 : 2 (22/2) [12/1]
|   |   |   |   |   |   |   |   |   Att1281 >= 214 : 2 (31/0) [8/3]
|   |   |   |   |   |   |   |   Att1834 >= 938
|   |   |   |   |   |   |   |   |   Att1176 < 1292 : 1 (24/1) [13/5]
|   |   |   |   |   |   |   |   |   Att1176 >= 1292 : 2 (5/0) [4/1]
|   |   |   |   |   |   |   Att1307 >= 1233.5 : 2 (48/2) [20/2]
|   |   |   |   |   |   Att1674 >= 16.05
|   |   |   |   |   |   |   Att1172 < 15.77 : 1 (38/2) [15/1]
|   |   |   |   |   |   |   Att1172 >= 15.77 : 2 (20/6) [10/3]
|   |   Att191 >= 236 : 2 (113/1) [46/2]
|   Att1042 >= 14.05
|   |   Att1359 < 11
|   |   |   Att1842 < 173
|   |   |   |   Att457 < 375 : 2 (4/0) [5/0]
|   |   |   |   Att457 >= 375 : 1 (12.23/0) [4.12/0]
|   |   |   Att1842 >= 173 : 2 (90/8) [47/10]
|   |   Att1359 >= 11
|   |   |   Att1209 < 1.99
|   |   |   |   Att254 < 197
|   |   |   |   |   Att1779 < 89.9
|   |   |   |   |   |   Att26 < 1.07
|   |   |   |   |   |   |   Att768 < 42 : 1 (37/1) [16/3]
|   |   |   |   |   |   |   Att768 >= 42
|   |   |   |   |   |   |   |   Att1043 < 16.5
|   |   |   |   |   |   |   |   |   Att2 < 1.68 : 1 (14/0) [3/2]
|   |   |   |   |   |   |   |   |   Att2 >= 1.68
|   |   |   |   |   |   |   |   |   |   Att58 < 647 : 2 (4/0) [3/0]
|   |   |   |   |   |   |   |   |   |   Att58 >= 647 : 1 (4/0) [2/0]
|   |   |   |   |   |   |   |   Att1043 >= 16.5 : 2 (16/1) [1/1]
|   |   |   |   |   |   Att26 >= 1.07
|   |   |   |   |   |   |   Att69 < 1886.5
|   |   |   |   |   |   |   |   Att1519 < 168.21 : 1 (274.51/3) [163.04/17]
|   |   |   |   |   |   |   |   Att1519 >= 168.21 : 2 (2.01/0.01) [1/0]
|   |   |   |   |   |   |   Att69 >= 1886.5 : 2 (3/0) [5/2]
|   |   |   |   |   Att1779 >= 89.9
|   |   |   |   |   |   Att891 < 1.01 : 2 (39.77/8.77) [28.88/5.88]
|   |   |   |   |   |   Att891 >= 1.01
|   |   |   |   |   |   |   Att1564 < 0.04 : 2 (21/3) [11/1]
|   |   |   |   |   |   |   Att1564 >= 0.04
|   |   |   |   |   |   |   |   Att1617 < 3.97
|   |   |   |   |   |   |   |   |   Att1220 < 1
|   |   |   |   |   |   |   |   |   |   Att584 < 16.01 : 2 (14/3) [14/6]
|   |   |   |   |   |   |   |   |   |   Att584 >= 16.01 : 1 (14/0) [7/1]
|   |   |   |   |   |   |   |   |   Att1220 >= 1
|   |   |   |   |   |   |   |   |   |   Att452 < 40.47 : 1 (115/0) [56.97/4]
|   |   |   |   |   |   |   |   |   |   Att452 >= 40.47 : 2 (3/1) [2.03/0.03]
|   |   |   |   |   |   |   |   Att1617 >= 3.97
|   |   |   |   |   |   |   |   |   Att158 < 172.75 : 1 (3/0) [3/1]
|   |   |   |   |   |   |   |   |   Att158 >= 172.75 : 2 (9.95/0) [6/0]
|   |   |   |   Att254 >= 197 : 2 (29.05/0) [15/1]
|   |   |   Att1209 >= 1.99
|   |   |   |   Att401 < 4.65
|   |   |   |   |   Att1716 < 116
|   |   |   |   |   |   Att1467 < 2.67
|   |   |   |   |   |   |   Att351 < 16.5 : 1 (14/1) [16/2]
|   |   |   |   |   |   |   Att351 >= 16.5 : 2 (10/1) [4/1]
|   |   |   |   |   |   Att1467 >= 2.67 : 2 (30.37/0) [22/1]
|   |   |   |   |   Att1716 >= 116
|   |   |   |   |   |   Att1810 < 106.5 : 2 (27.63/10) [11/3]
|   |   |   |   |   |   Att1810 >= 106.5
|   |   |   |   |   |   |   Att1161 < 178.5
|   |   |   |   |   |   |   |   Att5 < 860.5 : 2 (6/0) [5/0]
|   |   |   |   |   |   |   |   Att5 >= 860.5 : 1 (8/0) [3/1]
|   |   |   |   |   |   |   Att1161 >= 178.5 : 1 (51/0) [21/3]
|   |   |   |   Att401 >= 4.65
|   |   |   |   |   Att486 < 1.5 : 2 (50/0) [11/0]
|   |   |   |   |   Att486 >= 1.5 : 1 (11/5) [3/1]

Size of the tree : 147


REPTree
============

Att913 < 16.03
|   Att1464 < 4940.76
|   |   Att1235 < 175.31
|   |   |   Att1883 < 1055.5
|   |   |   |   Att1532 < 2083.5 : 2 (539.9/0) [242/9]
|   |   |   |   Att1532 >= 2083.5
|   |   |   |   |   Att6 < 251.91 : 1 (2/0) [1/0]
|   |   |   |   |   Att6 >= 251.91 : 2 (4/0) [2/0]
|   |   |   Att1883 >= 1055.5 : 2 (63.1/6) [35/6]
|   |   Att1235 >= 175.31
|   |   |   Att313 < 3.36
|   |   |   |   Att796 < 216.5
|   |   |   |   |   Att1 < 289.5 : 2 (4/0) [1/0]
|   |   |   |   |   Att1 >= 289.5 : 1 (2/0) [3/1]
|   |   |   |   Att796 >= 216.5 : 2 (157/0) [81/5]
|   |   |   Att313 >= 3.36
|   |   |   |   Att1794 < 16.31
|   |   |   |   |   Att1807 < 189.25 : 2 (38/1) [12/2]
|   |   |   |   |   Att1807 >= 189.25 : 1 (8/2) [5/0]
|   |   |   |   Att1794 >= 16.31 : 1 (16/2) [8/3]
|   Att1464 >= 4940.76
|   |   Att1705 < 2.08
|   |   |   Att1084 < 4.5
|   |   |   |   Att555 < 211 : 2 (24/1) [9/2]
|   |   |   |   Att555 >= 211
|   |   |   |   |   Att63 < 1017 : 1 (7/0) [5/2]
|   |   |   |   |   Att63 >= 1017 : 2 (4/0) [1/0]
|   |   |   Att1084 >= 4.5 : 2 (51/0) [23/0]
|   |   Att1705 >= 2.08
|   |   |   Att1071 < 157.5
|   |   |   |   Att1724 < 183.26
|   |   |   |   |   Att452 < 14.53
|   |   |   |   |   |   Att543 < 742.69
|   |   |   |   |   |   |   Att5 < 487.07 : 2 (3/0) [9/3]
|   |   |   |   |   |   |   Att5 >= 487.07 : 1 (2.37/0) [1/0]
|   |   |   |   |   |   Att543 >= 742.69 : 1 (24/0) [16/4]
|   |   |   |   |   Att452 >= 14.53 : 2 (17/4) [8/0]
|   |   |   |   Att1724 >= 183.26 : 1 (40/0) [22/3]
|   |   |   Att1071 >= 157.5 : 2 (17/0) [7/0]
Att913 >= 16.03
|   Att1161 < 180.11
|   |   Att1867 < 255.39
|   |   |   Att1589 < 84.5
|   |   |   |   Att1228 < 82 : 2 (113/2) [65/2]
|   |   |   |   Att1228 >= 82
|   |   |   |   |   Att1100 < 1125
|   |   |   |   |   |   Att207 < 675
|   |   |   |   |   |   |   Att651 < 945.5 : 1 (8.72/0) [7.1/4.1]
|   |   |   |   |   |   |   Att651 >= 945.5 : 2 (3/0) [3/0]
|   |   |   |   |   |   Att207 >= 675
|   |   |   |   |   |   |   Att278 < 841.37
|   |   |   |   |   |   |   |   Att141 < 1403.24 : 2 (87/0) [49.9/3]
|   |   |   |   |   |   |   |   Att141 >= 1403.24
|   |   |   |   |   |   |   |   |   Att5 < 1126.98 : 1 (2/0) [4/0]
|   |   |   |   |   |   |   |   |   Att5 >= 1126.98 : 2 (5/0) [0/0]
|   |   |   |   |   |   |   Att278 >= 841.37 : 1 (6/2) [4/1]
|   |   |   |   |   Att1100 >= 1125
|   |   |   |   |   |   Att891 < 2.04 : 2 (28/7) [10/3]
|   |   |   |   |   |   Att891 >= 2.04 : 1 (23/1) [9/4]
|   |   |   Att1589 >= 84.5 : 2 (173/0) [74/1]
|   |   Att1867 >= 255.39
|   |   |   Att690 < 15.99
|   |   |   |   Att690 < 15.01
|   |   |   |   |   Att1032 < 1087
|   |   |   |   |   |   Att558 < 151.5
|   |   |   |   |   |   |   Att1132 < 14.5 : 2 (28/6) [14/5]
|   |   |   |   |   |   |   Att1132 >= 14.5
|   |   |   |   |   |   |   |   Att1183 < 648.75
|   |   |   |   |   |   |   |   |   Att1833 < 463.5 : 2 (17/1) [9/1]
|   |   |   |   |   |   |   |   |   Att1833 >= 463.5 : 1 (28.28/5) [18/6]
|   |   |   |   |   |   |   |   Att1183 >= 648.75
|   |   |   |   |   |   |   |   |   Att70 < 1719.98
|   |   |   |   |   |   |   |   |   |   Att792 < 15.05
|   |   |   |   |   |   |   |   |   |   |   Att143 < 255 : 2 (4/0) [1/0]
|   |   |   |   |   |   |   |   |   |   |   Att143 >= 255 : 1 (11/0) [9/3]
|   |   |   |   |   |   |   |   |   |   Att792 >= 15.05 : 1 (78/0) [37/12]
|   |   |   |   |   |   |   |   |   Att70 >= 1719.98 : 2 (3/0) [3/0]
|   |   |   |   |   |   Att558 >= 151.5 : 2 (21/1) [7/1]
|   |   |   |   |   Att1032 >= 1087 : 2 (30/1) [7/0]
|   |   |   |   Att690 >= 15.01 : 1 (75.63/0) [25/0]
|   |   |   Att690 >= 15.99
|   |   |   |   Att148 < 99.14
|   |   |   |   |   Att1708 < 235
|   |   |   |   |   |   Att209 < 348
|   |   |   |   |   |   |   Att385 < 434 : 2 (15/1) [7/1]
|   |   |   |   |   |   |   Att385 >= 434 : 1 (7/0) [3/1]
|   |   |   |   |   |   Att209 >= 348 : 2 (55/0) [39/2]
|   |   |   |   |   Att1708 >= 235
|   |   |   |   |   |   Att272 < 183.26
|   |   |   |   |   |   |   Att1801 < 2.83
|   |   |   |   |   |   |   |   Att1402 < 1322.5
|   |   |   |   |   |   |   |   |   Att128 < 3.94
|   |   |   |   |   |   |   |   |   |   Att734 < 1835.42
|   |   |   |   |   |   |   |   |   |   |   Att1627 < 5.97
|   |   |   |   |   |   |   |   |   |   |   |   Att1762 < 1.5 : 2 (6/0) [1/0]
|   |   |   |   |   |   |   |   |   |   |   |   Att1762 >= 1.5 : 1 (127/5) [67/14]
|   |   |   |   |   |   |   |   |   |   |   Att1627 >= 5.97
|   |   |   |   |   |   |   |   |   |   |   |   Att1492 < 1019.06
|   |   |   |   |   |   |   |   |   |   |   |   |   Att1776 < 244.5 : 2 (16/0) [12/5]
|   |   |   |   |   |   |   |   |   |   |   |   |   Att1776 >= 244.5 : 1 (6/0) [4/1]
|   |   |   |   |   |   |   |   |   |   |   |   Att1492 >= 1019.06 : 1 (11/0) [3/0]
|   |   |   |   |   |   |   |   |   |   Att734 >= 1835.42
|   |   |   |   |   |   |   |   |   |   |   Att42 < 1128.5 : 2 (12/0) [5/0]
|   |   |   |   |   |   |   |   |   |   |   Att42 >= 1128.5 : 1 (3/0) [2/0]
|   |   |   |   |   |   |   |   |   Att128 >= 3.94 : 2 (44/11) [19.9/2]
|   |   |   |   |   |   |   |   Att1402 >= 1322.5 : 2 (25/1) [14.1/3]
|   |   |   |   |   |   |   Att1801 >= 2.83
|   |   |   |   |   |   |   |   Att1342 < 17.05 : 2 (30/0) [15/2]
|   |   |   |   |   |   |   |   Att1342 >= 17.05 : 1 (2/0) [1/0]
|   |   |   |   |   |   Att272 >= 183.26
|   |   |   |   |   |   |   Att401 < 5.5 : 2 (48.7/1) [19.7/1]
|   |   |   |   |   |   |   Att401 >= 5.5 : 1 (5/1) [2/0]
|   |   |   |   Att148 >= 99.14 : 2 (90/1) [56/4]
|   Att1161 >= 180.11
|   |   Att454 < 80.7
|   |   |   Att262 < 1.03
|   |   |   |   Att1093 < 96 : 1 (12/0) [5/2]
|   |   |   |   Att1093 >= 96
|   |   |   |   |   Att1016 < 392
|   |   |   |   |   |   Att1635 < 60.14 : 2 (5/0) [6/1]
|   |   |   |   |   |   Att1635 >= 60.14 : 1 (7/0) [7/2]
|   |   |   |   |   Att1016 >= 392 : 2 (30/0) [8/2]
|   |   |   Att262 >= 1.03
|   |   |   |   Att855 < 4.02
|   |   |   |   |   Att881 < 15.05
|   |   |   |   |   |   Att443 < 612.26 : 2 (16.3/0) [3.3/0]
|   |   |   |   |   |   Att443 >= 612.26
|   |   |   |   |   |   |   Att152 < 555 : 2 (7/0) [6/2]
|   |   |   |   |   |   |   Att152 >= 555
|   |   |   |   |   |   |   |   Att177 < 166.5
|   |   |   |   |   |   |   |   |   Att2 < 3.5 : 1 (2/0) [1/0]
|   |   |   |   |   |   |   |   |   Att2 >= 3.5 : 2 (4/0) [2/0]
|   |   |   |   |   |   |   |   Att177 >= 166.5 : 1 (18/0) [6/0]
|   |   |   |   |   Att881 >= 15.05
|   |   |   |   |   |   Att729 < 0.12
|   |   |   |   |   |   |   Att98 < 1434 : 1 (12/1) [10/5]
|   |   |   |   |   |   |   Att98 >= 1434
|   |   |   |   |   |   |   |   Att20 < 1305.5 : 2 (13/0) [5/2]
|   |   |   |   |   |   |   |   Att20 >= 1305.5 : 1 (3/0) [4/1]
|   |   |   |   |   |   Att729 >= 0.12
|   |   |   |   |   |   |   Att1263 < 723.5 : 1 (72/0) [36/1]
|   |   |   |   |   |   |   Att1263 >= 723.5
|   |   |   |   |   |   |   |   Att1636 < 15.5 : 2 (6/0) [5/1]
|   |   |   |   |   |   |   |   Att1636 >= 15.5 : 1 (11/0) [5/0]
|   |   |   |   Att855 >= 4.02
|   |   |   |   |   Att1729 < 413
|   |   |   |   |   |   Att1597 < 526.5
|   |   |   |   |   |   |   Att159 < 534.09 : 1 (18/1) [5/1]
|   |   |   |   |   |   |   Att159 >= 534.09 : 2 (9/2) [6.11/2]
|   |   |   |   |   |   Att1597 >= 526.5 : 1 (221/3) [113.89/11.89]
|   |   |   |   |   Att1729 >= 413
|   |   |   |   |   |   Att546 < 673 : 2 (7/0) [9/1]
|   |   |   |   |   |   Att546 >= 673 : 1 (3/0) [4/0]
|   |   Att454 >= 80.7
|   |   |   Att123 < 1252.5 : 2 (40/3) [20/1]
|   |   |   Att123 >= 1252.5
|   |   |   |   Att4 < 154.5 : 1 (10/0) [12/2]
|   |   |   |   Att4 >= 154.5 : 2 (3/0) [3/0]

Size of the tree : 159


REPTree
============

Att341 < 21.03
|   Att913 < 19.01
|   |   Att1769 < 125.82
|   |   |   Att1489 < 1.51
|   |   |   |   Att1645 < 187.67
|   |   |   |   |   Att313 < 1.18 : 2 (21/0) [7/0]
|   |   |   |   |   Att313 >= 1.18
|   |   |   |   |   |   Att14 < 91 : 2 (6/1) [3/0]
|   |   |   |   |   |   Att14 >= 91 : 1 (10/0) [5/2]
|   |   |   |   Att1645 >= 187.67 : 2 (111/1) [54/0]
|   |   |   Att1489 >= 1.51 : 2 (548.75/0) [267.5/8]
|   |   Att1769 >= 125.82
|   |   |   Att1731 < 1126.09 : 2 (99/0) [53/1]
|   |   |   Att1731 >= 1126.09
|   |   |   |   Att1564 < 18.17
|   |   |   |   |   Att412 < 5379.5
|   |   |   |   |   |   Att1800 < 510.35
|   |   |   |   |   |   |   Att1332 < 220.5
|   |   |   |   |   |   |   |   Att770 < 34.5 : 1 (2/0) [1/0]
|   |   |   |   |   |   |   |   Att770 >= 34.5 : 2 (52/0) [24/1]
|   |   |   |   |   |   |   Att1332 >= 220.5 : 1 (4/1) [3/1]
|   |   |   |   |   |   Att1800 >= 510.35
|   |   |   |   |   |   |   Att770 < 360.73 : 1 (13/0) [11/4]
|   |   |   |   |   |   |   Att770 >= 360.73 : 2 (9/0) [7/1]
|   |   |   |   |   Att412 >= 5379.5
|   |   |   |   |   |   Att84 < 1064 : 1 (20/0) [15/5]
|   |   |   |   |   |   Att84 >= 1064 : 2 (4/0) [1/0]
|   |   |   |   Att1564 >= 18.17 : 2 (60/0) [32/0]
|   Att913 >= 19.01
|   |   Att1670 < -0.04
|   |   |   Att1042 < 16.06
|   |   |   |   Att920 < 814.87 : 2 (55/2) [39/5]
|   |   |   |   Att920 >= 814.87
|   |   |   |   |   Att698 < 16.04
|   |   |   |   |   |   Att56 < 16.14 : 2 (43.62/5.62) [21/2]
|   |   |   |   |   |   Att56 >= 16.14 : 1 (7.25/0.25) [4.5/1.5]
|   |   |   |   |   Att698 >= 16.04
|   |   |   |   |   |   Att217 < 209.65 : 1 (21/0) [13/1]
|   |   |   |   |   |   Att217 >= 209.65 : 2 (5.46/0) [2.92/1]
|   |   |   Att1042 >= 16.06
|   |   |   |   Att148 < 207.79 : 1 (59.62/7) [33.24/8]
|   |   |   |   Att148 >= 207.79 : 2 (7/0) [6/0]
|   |   Att1670 >= -0.04
|   |   |   Att399 < 20.72 : 2 (99/0) [50/1]
|   |   |   Att399 >= 20.72
|   |   |   |   Att207 < 1152.5 : 2 (17/0) [9/0]
|   |   |   |   Att207 >= 1152.5 : 1 (6.76/0) [5.76/2]
Att341 >= 21.03
|   Att1832 < 2
|   |   Att180 < 2.01
|   |   |   Att1393 < 2000.5
|   |   |   |   Att1756 < 102.69
|   |   |   |   |   Att262 < 2.13
|   |   |   |   |   |   Att762 < 71.92
|   |   |   |   |   |   |   Att753 < -3.43 : 1 (20.36/0) [8.36/1]
|   |   |   |   |   |   |   Att753 >= -3.43
|   |   |   |   |   |   |   |   Att1707 < 2.5 : 2 (25/1) [10/3]
|   |   |   |   |   |   |   |   Att1707 >= 2.5
|   |   |   |   |   |   |   |   |   Att180 < 1.5 : 2 (3/0) [5/0]
|   |   |   |   |   |   |   |   |   Att180 >= 1.5 : 1 (8.64/0) [0.64/0]
|   |   |   |   |   |   Att762 >= 71.92 : 2 (48/4) [21/7]
|   |   |   |   |   Att262 >= 2.13
|   |   |   |   |   |   Att585 < 1.99
|   |   |   |   |   |   |   Att137 < 2010.63
|   |   |   |   |   |   |   |   Att244 < 476 : 1 (69/1) [21/1]
|   |   |   |   |   |   |   |   Att244 >= 476
|   |   |   |   |   |   |   |   |   Att920 < 1810.54
|   |   |   |   |   |   |   |   |   |   Att1804 < 15.22
|   |   |   |   |   |   |   |   |   |   |   Att16 < 289 : 1 (5/1) [6/1]
|   |   |   |   |   |   |   |   |   |   |   Att16 >= 289 : 2 (6/0) [3/0]
|   |   |   |   |   |   |   |   |   |   Att1804 >= 15.22 : 1 (39/1) [19/2]
|   |   |   |   |   |   |   |   |   Att920 >= 1810.54 : 2 (8/0) [5/2]
|   |   |   |   |   |   |   Att137 >= 2010.63 : 2 (9/0) [0/0]
|   |   |   |   |   |   Att585 >= 1.99
|   |   |   |   |   |   |   Att401 < 3.5 : 2 (20/0) [8/3]
|   |   |   |   |   |   |   Att401 >= 3.5
|   |   |   |   |   |   |   |   Att291 < 760.15 : 2 (14/3) [17/2]
|   |   |   |   |   |   |   |   Att291 >= 760.15 : 1 (11/0) [14/5]
|   |   |   |   Att1756 >= 102.69
|   |   |   |   |   Att1449 < 46.3
|   |   |   |   |   |   Att1 < 126 : 2 (2/0) [1/0]
|   |   |   |   |   |   Att1 >= 126 : 1 (8/0) [2/0]
|   |   |   |   |   Att1449 >= 46.3 : 2 (57/2) [23/4]
|   |   |   Att1393 >= 2000.5 : 2 (42/0) [16/1]
|   |   Att180 >= 2.01
|   |   |   Att1224 < 9.31
|   |   |   |   Att188 < 381
|   |   |   |   |   Att2 < 67 : 1 (11/0) [3/0]
|   |   |   |   |   Att2 >= 67 : 2 (3/0) [1/0]
|   |   |   |   Att188 >= 381
|   |   |   |   |   Att1235 < 225.27 : 2 (43/1) [23/6]
|   |   |   |   |   Att1235 >= 225.27 : 1 (3/0) [1/0]
|   |   |   Att1224 >= 9.31
|   |   |   |   Att452 < 39.65
|   |   |   |   |   Att1267 < 14
|   |   |   |   |   |   Att1636 < 16.1
|   |   |   |   |   |   |   Att1264 < 2472.5 : 2 (27/1) [10/1]
|   |   |   |   |   |   |   Att1264 >= 2472.5 : 1 (10/2) [6/0]
|   |   |   |   |   |   Att1636 >= 16.1
|   |   |   |   |   |   |   Att343 < 52.5 : 1 (27.27/0) [16/0]
|   |   |   |   |   |   |   Att343 >= 52.5 : 2 (7/2) [2/0]
|   |   |   |   |   Att1267 >= 14
|   |   |   |   |   |   Att1663 < 4.95
|   |   |   |   |   |   |   Att229 < 322.5
|   |   |   |   |   |   |   |   Att720 < 145.64
|   |   |   |   |   |   |   |   |   Att100 < 315.94 : 1 (22/0) [7/1]
|   |   |   |   |   |   |   |   |   Att100 >= 315.94 : 2 (3/0) [3/0]
|   |   |   |   |   |   |   |   Att720 >= 145.64 : 2 (12/0) [9/1]
|   |   |   |   |   |   |   Att229 >= 322.5
|   |   |   |   |   |   |   |   Att56 < 15.02
|   |   |   |   |   |   |   |   |   Att1046 < 2.05 : 2 (6/0) [4/1]
|   |   |   |   |   |   |   |   |   Att1046 >= 2.05
|   |   |   |   |   |   |   |   |   |   Att582 < 36.5
|   |   |   |   |   |   |   |   |   |   |   Att7 < 363.79 : 1 (3/0) [1/0]
|   |   |   |   |   |   |   |   |   |   |   Att7 >= 363.79 : 2 (5/0) [5/2]
|   |   |   |   |   |   |   |   |   |   Att582 >= 36.5
|   |   |   |   |   |   |   |   |   |   |   Att362 < 3.71 : 1 (47/0) [23/1]
|   |   |   |   |   |   |   |   |   |   |   Att362 >= 3.71 : 2 (2/0) [2/0]
|   |   |   |   |   |   |   |   Att56 >= 15.02
|   |   |   |   |   |   |   |   |   Att113 < 4.97
|   |   |   |   |   |   |   |   |   |   Att1034 < 0.03
